{"learner":{"attributes":{"scikit_learn":"{\"_estimator_type\": \"classifier\"}"},"feature_names":["Flow Duration","Flow Bytes/s","Flow Packets/s","Total Fwd Packets","Total Backward Packets","Total Length of Fwd Packets","Total Length of Bwd Packets","Fwd Packet Length Mean","Bwd Packet Length Mean","Max Packet Length","Min Packet Length","Packet Length Std","Flow IAT Mean","Flow IAT Std","Flow IAT Max","Flow IAT Min","SYN Flag Count","ACK Flag Count","RST Flag Count","PSH Flag Count","FIN Flag Count","URG Flag Count","Subflow Fwd Packets","Subflow Bwd Packets","Subflow Fwd Bytes","Subflow Bwd Bytes","Init_Win_bytes_forward","Init_Win_bytes_backward","Active Mean","Active Std","Idle Mean","Idle Std"],"feature_types":["float","float","float","float","float","float","float","float","float","float","float","float","float","float","float","float","float","float","float","float","float","float","float","float","float","float","float","float","float","float","float","float"],"gradient_booster":{"model":{"gbtree_model_param":{"num_parallel_tree":"1","num_trees":"800"},"iteration_indptr":[0,8,16,24,32,40,48,56,64,72,80,88,96,104,112,120,128,136,144,152,160,168,176,184,192,200,208,216,224,232,240,248,256,264,272,280,288,296,304,312,320,328,336,344,352,360,368,376,384,392,400,408,416,424,432,440,448,456,464,472,480,488,496,504,512,520,528,536,544,552,560,568,576,584,592,600,608,616,624,632,640,648,656,664,672,680,688,696,704,712,720,728,736,744,752,760,768,776,784,792,800],"tree_info":[0,1,2,3,4,5,6,7,0,1,2,3,4,5,6,7,0,1,2,3,4,5,6,7,0,1,2,3,4,5,6,7,0,1,2,3,4,5,6,7,0,1,2,3,4,5,6,7,0,1,2,3,4,5,6,7,0,1,2,3,4,5,6,7,0,1,2,3,4,5,6,7,0,1,2,3,4,5,6,7,0,1,2,3,4,5,6,7,0,1,2,3,4,5,6,7,0,1,2,3,4,5,6,7,0,1,2,3,4,5,6,7,0,1,2,3,4,5,6,7,0,1,2,3,4,5,6,7,0,1,2,3,4,5,6,7,0,1,2,3,4,5,6,7,0,1,2,3,4,5,6,7,0,1,2,3,4,5,6,7,0,1,2,3,4,5,6,7,0,1,2,3,4,5,6,7,0,1,2,3,4,5,6,7,0,1,2,3,4,5,6,7,0,1,2,3,4,5,6,7,0,1,2,3,4,5,6,7,0,1,2,3,4,5,6,7,0,1,2,3,4,5,6,7,0,1,2,3,4,5,6,7,0,1,2,3,4,5,6,7,0,1,2,3,4,5,6,7,0,1,2,3,4,5,6,7,0,1,2,3,4,5,6,7,0,1,2,3,4,5,6,7,0,1,2,3,4,5,6,7,0,1,2,3,4,5,6,7,0,1,2,3,4,5,6,7,0,1,2,3,4,5,6,7,0,1,2,3,4,5,6,7,0,1,2,3,4,5,6,7,0,1,2,3,4,5,6,7,0,1,2,3,4,5,6,7,0,1,2,3,4,5,6,7,0,1,2,3,4,5,6,7,0,1,2,3,4,5,6,7,0,1,2,3,4,5,6,7,0,1,2,3,4,5,6,7,0,1,2,3,4,5,6,7,0,1,2,3,4,5,6,7,0,1,2,3,4,5,6,7,0,1,2,3,4,5,6,7,0,1,2,3,4,5,6,7,0,1,2,3,4,5,6,7,0,1,2,3,4,5,6,7,0,1,2,3,4,5,6,7,0,1,2,3,4,5,6,7,0,1,2,3,4,5,6,7,0,1,2,3,4,5,6,7,0,1,2,3,4,5,6,7,0,1,2,3,4,5,6,7,0,1,2,3,4,5,6,7,0,1,2,3,4,5,6,7,0,1,2,3,4,5,6,7,0,1,2,3,4,5,6,7,0,1,2,3,4,5,6,7,0,1,2,3,4,5,6,7,0,1,2,3,4,5,6,7,0,1,2,3,4,5,6,7,0,1,2,3,4,5,6,7,0,1,2,3,4,5,6,7,0,1,2,3,4,5,6,7,0,1,2,3,4,5,6,7,0,1,2,3,4,5,6,7,0,1,2,3,4,5,6,7,0,1,2,3,4,5,6,7,0,1,2,3,4,5,6,7,0,1,2,3,4,5,6,7,0,1,2,3,4,5,6,7,0,1,2,3,4,5,6,7,0,1,2,3,4,5,6,7,0,1,2,3,4,5,6,7,0,1,2,3,4,5,6,7,0,1,2,3,4,5,6,7,0,1,2,3,4,5,6,7,0,1,2,3,4,5,6,7,0,1,2,3,4,5,6,7,0,1,2,3,4,5,6,7,0,1,2,3,4,5,6,7,0,1,2,3,4,5,6,7,0,1,2,3,4,5,6,7,0,1,2,3,4,5,6,7,0,1,2,3,4,5,6,7,0,1,2,3,4,5,6,7,0,1,2,3,4,5,6,7,0,1,2,3,4,5,6,7,0,1,2,3,4,5,6,7,0,1,2,3,4,5,6,7,0,1,2,3,4,5,6,7,0,1,2,3,4,5,6,7,0,1,2,3,4,5,6,7],"trees":[{"base_weights":[8.578541E-3,3.9120045E0,-5.6840914E-1,1.9294492E0,3.98345E0,-5.7097507E-1,1.1913005E0,3.7341347E0,-3.9404613E-1,3.9877741E0,3.3948338E-1,-5.712416E-1,1.1028341E0,2.2537804E0,3.9575899E0,-5.051258E-1,1.1175966E0,3.7711885E0,1.1993226E0,-3.8549957E-1,1.0500001E0,-5.0927246E-1,-1.714254E-1,3.319149E0,-1.6508672E-1,1.1906154E0,2.3551402E0,-1.6283187E-1,1.724138E-1,3.7847388E0,-1.4193548E-1,-5.2554744E-1,6.268657E-1,-5.5186087E-1,9.1555554E-1,1.098454E0,8.3952576E-1,-1.0370371E-1,9.6727276E-1,7.534884E-1,-1.035533E-1,1.0198992E0,1.1664875E0,-1.6611812E-1,-1.263158E-2,-1.6726878E-1,1.4890511E-1],"categories":[],"categories_nodes":[],"categories_segments":[],"categories_sizes":[],"default_left":[0,0,0,0,0,0,0,0,0,0,0,0,0,0,0,0,0,0,0,0,0,0,0,0,0,0,0,0,0,0,0,0,0,0,0,0,0,0,0,0,0,0,0,0,0,0,0],"id":0,"left_children":[1,3,5,7,9,11,-1,13,15,17,19,21,-1,23,25,27,-1,29,-1,31,-1,33,-1,35,-1,-1,37,-1,39,41,-1,43,-1,45,-1,-1,-1,-1,-1,-1,-1,-1,-1,-1,-1,-1,-1],"loss_changes":[6.3062844E5,5.0998125E3,2.8436719E3,5.268889E3,5.470625E2,2.7814062E2,0E0,2.2499219E2,2.535783E2,5.99375E1,9.837236E1,2.375E0,0E0,2.8581308E2,1.5849609E0,1.377829E1,0E0,9.076758E1,0E0,1.3349215E1,0E0,1.07999664E2,0E0,2.0604248E0,0E0,0E0,1.6812042E1,0E0,3.597892E1,4.828125E1,0E0,4.4327927E-1,0E0,4.4219055E0,0E0,0E0,0E0,0E0,0E0,0E0,0E0,0E0,0E0,0E0,0E0,0E0,0E0],"parents":[2147483647,0,0,1,1,2,2,3,3,4,4,5,5,7,7,8,8,9,9,10,10,11,11,13,13,14,14,15,15,17,17,19,19,21,21,23,23,26,26,28,28,29,29,31,31,33,33],"right_children":[2,4,6,8,10,12,-1,14,16,18,20,22,-1,24,26,28,-1,30,-1,32,-1,34,-1,36,-1,-1,38,-1,40,42,-1,44,-1,46,-1,-1,-1,-1,-1,-1,-1,-1,-1,-1,-1,-1,-1],"split_conditions":[8E1,5.7735026E-1,2.012522E-3,1.0065877E0,6.5535E4,3.2907504E2,1.1913005E0,2.45E2,3.1246195E-8,1.9248964E0,1.12E3,2.11E2,1.1028341E0,2.7335026E0,5.0215544E5,4.28E1,1.1175966E0,7.4E1,1.1993226E0,1.1346514E8,1.0500001E0,8.02E2,-1.714254E-1,3.2E1,-1.6508672E-1,1.1906154E0,2.52E2,-1.6283187E-1,5E1,2.45E2,-1.4193548E-1,1.7054709E4,6.268657E-1,1.4142135E0,9.1555554E-1,1.098454E0,8.3952576E-1,-1.0370371E-1,9.6727276E-1,7.534884E-1,-1.035533E-1,1.0198992E0,1.1664875E0,-1.6611812E-1,-1.263158E-2,-1.6726878E-1,1.4890511E-1],"split_indices":[10,13,4,10,26,15,0,26,18,11,9,9,0,27,0,7,0,3,0,0,0,5,0,26,0,0,26,0,7,26,0,1,0,13,0,0,0,0,0,0,0,0,0,0,0,0,0],"split_type":[0,0,0,0,0,0,0,0,0,0,0,0,0,0,0,0,0,0,0,0,0,0,0,0,0,0,0,0,0,0,0,0,0,0,0,0,0,0,0,0,0,0,0,0,0,0,0],"sum_hessian":[2.8E5,3.6057656E4,2.4394234E5,1.2551875E3,3.480247E4,2.438054E5,1.369375E2,7.06125E2,5.490625E2,3.4761125E4,4.134375E1,2.4379097E5,1.44375E1,9.40625E1,6.120625E2,5.355E2,1.35625E1,1.546125E3,3.3215E4,3.434375E1,7E0,7E2,2.4309097E5,6.803125E1,2.603125E1,6.06375E2,5.6875E0,5.075E2,2.8E1,1.5413125E3,4.8125E0,3.325E1,1.09375E0,6.925625E2,7.4375E0,3.740625E1,3.0625E1,1.53125E0,4.15625E0,4.375E0,2.3625E1,3.338125E2,1.2075E3,3.128125E1,1.96875E0,6.8928125E2,3.28125E0],"tree_param":{"num_deleted":"0","num_feature":"32","num_nodes":"47","size_leaf_vector":"1"}},{"base_weights":[4.999982E-4,-4.8188955E-1,9.7355163E-1,-5.158316E-1,-2.0597343E-1,3.6479858E-1,1.562666E0,-2.6299E-1,-5.3379774E-1,1.0979186E-1,-2.3914607E-1,4.1996203E-2,2.195314E0,3.2936938E0,1.4184654E0,1.1768508E0,-5.6796986E-1,-5.0029814E-1,-5.648579E-1,8.557635E-2,3.055118E0,-3.6276793E-1,-8.4567234E-2,9.570698E-1,-5.671081E-2,2.8892386E0,1.30079E0,1.8666667E0,9.943476E-1,2.180253E0,1.3929645E0,-5.547221E-1,2.4291363E0,-5.687354E-1,8.372093E-1,-5.267609E-1,-3.610794E-1,-5.6887025E-1,-5.096063E-1,1.2474701E0,4.3284107E-2,3.7241378E-1,9.962265E-1,7.0028335E-2,-3.75766E-1,1.0827196E-2,-3.208156E-1,5.077764E-1,2.138965E0,6.155651E-1,-8.772652E-2,3.0711427E0,2.4838593E0,3.1033058E0,9.5239997E-1,1.0135924E0,1.1996818E0,2.8905112E-1,6.547226E-1,-4.0823884E-2,1.4027957E0,-1.6677715E-1,1.48148155E-2,1.155607E0,4.8661357E-1,-1.706852E-1,-1.2215569E-1,7.259259E-1,-1.2682928E-1,-1.69614E-1,-1.4947715E-1,-1.5975888E-1,-7.232664E-2,-1.7082189E-1,-1.3305126E-1,-1.6509281E-1,1.7941225E-1,4.978563E-1,3.8709678E-2,-1.9296065E-2,1.6020826E-1,-1.3339198E-1,-9.92603E-2,-2.4886021E-2,2.8649443E-1,-1.42837E-1,-1.5181115E-2,8.3918E-1,4.9460366E-2,9.015544E-1,6.162888E-1,9.431907E-2,2.4216247E-1,-1.20980576E-1,-1.5349845E-2,1.0690836E0,8.971059E-1,9.817705E-1,7.124324E-1,1.0445479E0,5.8618927E-1,7.287301E-1,2.4843732E-1,-9.7297296E-2,3.7827164E-1,3.7102026E-1,4.2334315E-1],"categories":[],"categories_nodes":[],"categories_segments":[],"categories_sizes":[],"default_left":[0,0,0,0,0,0,0,0,0,0,0,0,0,0,0,0,0,0,0,0,0,0,0,0,0,0,0,0,0,0,0,0,0,0,0,0,0,0,0,0,0,0,0,0,0,0,0,0,0,0,0,0,0,0,0,0,0,0,0,0,0,0,0,0,0,0,0,0,0,0,0,0,0,0,0,0,0,0,0,0,0,0,0,0,0,0,0,0,0,0,0,0,0,0,0,0,0,0,0,0,0,0,0,0,0,0,0],"id":1,"left_children":[1,3,5,7,9,11,13,15,17,19,21,23,25,27,29,31,33,35,37,39,41,43,45,47,49,51,53,55,-1,57,59,61,63,65,67,69,71,73,75,77,79,-1,-1,-1,81,83,85,87,89,91,93,95,97,99,101,-1,103,-1,-1,-1,105,-1,-1,-1,-1,-1,-1,-1,-1,-1,-1,-1,-1,-1,-1,-1,-1,-1,-1,-1,-1,-1,-1,-1,-1,-1,-1,-1,-1,-1,-1,-1,-1,-1,-1,-1,-1,-1,-1,-1,-1,-1,-1,-1,-1,-1,-1],"loss_changes":[1.3143012E5,1.7530391E3,3.32811E4,7.570703E2,2.1483752E2,2.6969707E4,1.1767727E4,4.857706E3,1.6165234E2,1.3883763E2,3.5460425E2,3.5047341E3,4.24341E3,1.0142578E2,8.427344E2,4.194333E3,1.0295654E1,2.7569336E2,1.7611328E1,9.505011E1,3.526184E0,7.9994385E1,1.85884E2,2.0050657E3,7.303474E2,2.7644336E2,1.8752495E3,5.0781937E1,0E0,1.5913086E0,6.335078E2,6.17218E-1,1.2826147E3,8.544922E-2,1.1740538E1,6.898242E1,2.4599536E2,4.8046875E0,2.4723645E2,3.1095085E1,9.870092E1,0E0,0E0,0E0,3.1059814E1,5.2039594E2,9.9538925E1,2.1496187E3,7.012256E1,8.8902405E1,3.8622125E2,9.49707E1,9.53374E1,2.0375977E2,4.5822803E2,0E0,4.074085E0,0E0,0E0,0E0,5.628125E1,0E0,0E0,0E0,0E0,0E0,0E0,0E0,0E0,0E0,0E0,0E0,0E0,0E0,0E0,0E0,0E0,0E0,0E0,0E0,0E0,0E0,0E0,0E0,0E0,0E0,0E0,0E0,0E0,0E0,0E0,0E0,0E0,0E0,0E0,0E0,0E0,0E0,0E0,0E0,0E0,0E0,0E0,0E0,0E0,0E0,0E0],"parents":[2147483647,0,0,1,1,2,2,3,3,4,4,5,5,6,6,7,7,8,8,9,9,10,10,11,11,12,12,13,13,14,14,15,15,16,16,17,17,18,18,19,19,20,20,21,21,22,22,23,23,24,24,25,25,26,26,27,27,29,29,30,30,31,31,32,32,33,33,34,34,35,35,36,36,37,37,38,38,39,39,40,40,44,44,45,45,46,46,47,47,48,48,49,49,50,50,51,51,52,52,53,53,54,54,56,56,60,60],"right_children":[2,4,6,8,10,12,14,16,18,20,22,24,26,28,30,32,34,36,38,40,42,44,46,48,50,52,54,56,-1,58,60,62,64,66,68,70,72,74,76,78,80,-1,-1,-1,82,84,86,88,90,92,94,96,98,100,102,-1,104,-1,-1,-1,106,-1,-1,-1,-1,-1,-1,-1,-1,-1,-1,-1,-1,-1,-1,-1,-1,-1,-1,-1,-1,-1,-1,-1,-1,-1,-1,-1,-1,-1,-1,-1,-1,-1,-1,-1,-1,-1,-1,-1,-1,-1,-1,-1,-1,-1,-1],"split_conditions":[1.416E3,5.68E2,2.896E9,4.22E2,7.14E8,4.3E1,2.901275E3,5.7735026E-1,4.8E1,1.4638866E2,1.666E9,2.901275E3,4.9E1,2.896E3,1E0,1.0342113E1,1.26E2,2E0,6.424E4,5.7E2,8.097166E3,5.7E2,2.738E3,2.896E3,7.5E8,4.8E1,1.9555556E7,2.836E3,9.943476E-1,2.928E3,2.928E9,9.85356E5,4.28E1,6.5535E4,5.683351E6,5.01E8,2.47E2,4.92E2,1E0,4.6E1,1.314E3,3.7241378E-1,9.962265E-1,7.0028335E-2,6.62E2,2.736E3,1.391E3,1.417E3,7.5E8,1.3333333E5,1.464E9,2.901275E3,2.901275E3,2.46E2,2.901275E3,1.0135924E0,2.848E3,2.8905112E-1,6.547226E-1,-4.0823884E-2,2.944E9,-1.6677715E-1,1.48148155E-2,1.155607E0,4.8661357E-1,-1.706852E-1,-1.2215569E-1,7.259259E-1,-1.2682928E-1,-1.69614E-1,-1.4947715E-1,-1.5975888E-1,-7.232664E-2,-1.7082189E-1,-1.3305126E-1,-1.6509281E-1,1.7941225E-1,4.978563E-1,3.8709678E-2,-1.9296065E-2,1.6020826E-1,-1.3339198E-1,-9.92603E-2,-2.4886021E-2,2.8649443E-1,-1.42837E-1,-1.5181115E-2,8.3918E-1,4.9460366E-2,9.015544E-1,6.162888E-1,9.431907E-2,2.4216247E-1,-1.20980576E-1,-1.5349845E-2,1.0690836E0,8.971059E-1,9.817705E-1,7.124324E-1,1.0445479E0,5.8618927E-1,7.287301E-1,2.4843732E-1,-9.7297296E-2,3.7827164E-1,3.7102026E-1,4.2334315E-1],"split_indices":[10,10,1,5,1,15,5,13,0,15,1,5,0,5,0,10,3,15,5,7,2,7,24,5,1,0,1,5,0,5,1,0,7,26,0,1,10,10,15,0,7,0,0,0,9,5,9,7,1,2,1,5,5,0,5,0,5,0,0,0,1,0,0,0,0,0,0,0,0,0,0,0,0,0,0,0,0,0,0,0,0,0,0,0,0,0,0,0,0,0,0,0,0,0,0,0,0,0,0,0,0,0,0,0,0,0,0],"split_type":[0,0,0,0,0,0,0,0,0,0,0,0,0,0,0,0,0,0,0,0,0,0,0,0,0,0,0,0,0,0,0,0,0,0,0,0,0,0,0,0,0,0,0,0,0,0,0,0,0,0,0,0,0,0,0,0,0,0,0,0,0,0,0,0,0,0,0,0,0,0,0,0,0,0,0,0,0,0,0,0,0,0,0,0,0,0,0,0,0,0,0,0,0,0,0,0,0,0,0,0,0,0,0,0,0,0,0],"sum_hessian":[2.8E5,1.871975E5,9.28025E4,1.66691E5,2.05065E4,4.5641312E4,4.7161188E4,1.1059781E4,1.5563122E5,1.9492812E3,1.8557219E4,3.8800125E4,6.8411875E3,3.6249062E3,4.353628E4,1.9326562E3,9.127125E3,7.488359E4,8.0747625E4,1.9344062E3,1.4875E1,1.0310344E4,8.246875E3,3.7769375E3,3.5023188E4,3.8513125E3,2.989875E3,5.3375E1,3.5715312E3,1.4074375E3,4.2128844E4,8.1134375E2,1.1213125E3,9.12275E3,4.375E0,6.2920812E4,1.1962781E4,7.527209E4,5.4755312E3,6.69375E1,1.8674688E3,2.625E0,1.225E1,2.19625E2,1.0090719E4,5.8754062E3,2.3714688E3,2.7376562E3,1.0392812E3,1.5437188E3,3.347947E4,2.653875E3,1.1974375E3,4.83E2,2.506875E3,1.509375E1,3.828125E1,3.28125E0,1.4041562E3,2.690625E2,4.185978E4,8.098125E2,1.53125E0,4.0446875E2,7.1684375E2,9.108094E3,1.465625E1,1.53125E0,2.84375E0,2.6711344E4,3.620947E4,4.9238438E3,7.0389375E3,7.4948125E4,3.2396875E2,5.2819375E3,1.9359375E2,4.85625E1,1.8375E1,1.5323438E3,3.35125E2,3.978625E3,6.1120938E3,5.345375E3,5.3003125E2,1.5054375E3,8.6603125E2,3.556875E2,2.3819688E3,8.946875E1,9.498125E2,6.0134375E2,9.42375E2,3.4752812E3,3.0004188E4,3.679375E2,2.2859375E3,1.4196875E2,1.0554688E3,3.618125E2,1.211875E2,1.9315625E2,2.3137188E3,1.3125E0,3.696875E1,2.01075E3,3.984903E4],"tree_param":{"num_deleted":"0","num_feature":"32","num_nodes":"107","size_leaf_vector":"1"}},{"base_weights":[9.6428226E-4,-5.451134E-1,1.1129428E0,-5.697668E-1,-1.7485127E-1,6.3657767E-1,1.6473901E0,-5.705907E-1,-5.078972E-1,-2.4282773E-1,-5.6162537E-3,5.542356E-1,1.8682159E0,1.0728886E0,1.6692982E0,-5.711538E-1,-5.626178E-1,-1.5564352E-1,-1.6939302E-1,-8.9022E-2,-3.2899806E-1,1.3495193E0,-2.8920862E-1,1.8632094E0,5.1789993E-1,2.1712825E0,3.578189E-1,2.1382008E-1,3.5672513E-1,4.6944207E-1,5.0235945E-1,-5.567982E-1,-1.714181E-1,-4.7098255E-1,-5.667511E-1,5.424284E-1,-5.353956E-1,-2.3405848E-1,1.8519958E0,-3.4709948E-1,5.949214E-1,5.410628E-1,1.4257636E0,-4.068237E-1,8.6677976E-2,2.1701589E0,1.3595744E0,3.159411E-2,5.925999E-1,1.9326018E0,2.9085596E0,-5.6220718E-2,1.3327873E0,1.8033898E0,-1.6359262E-1,-1.6803223E-1,3.627907E-1,-1.5643097E-1,-1.2569171E-1,-1.704365E-1,-1.5300523E-1,3.779155E-1,-3.8709678E-2,1.12500004E-1,-1.7058462E-1,2.1528744E-3,-1.2750421E-1,6.675869E-1,3.783784E-1,-1.3121794E-1,-6.716928E-2,2.3608746E-1,-7.301092E-2,2.736842E-1,-1.8126888E-2,3.1077504E-1,4.3064988E-1,-1.293921E-1,-6.1342377E-2,3.6218745E-1,-1.1242282E-1,6.6956234E-1,-1.6182138E-1,4.8485446E-1,3.9490995E-1,1.8394262E-2,-1.0286207E-1,1.9720882E-1,1.0513768E-1,1.9054054E-1,6.118524E-1,9.1380185E-1,5.6133056E-1,-4.0525574E-2,7.61175E-2,4.4165173E-1,-3.398693E-2,5.8133334E-1,3.692308E-1,-8.955224E-2,-4.8213206E-2],"categories":[],"categories_nodes":[],"categories_segments":[],"categories_sizes":[],"default_left":[0,0,0,0,0,0,0,0,0,0,0,0,0,0,0,0,0,0,0,0,0,0,0,0,0,0,0,0,0,0,0,0,0,0,0,0,0,0,0,0,0,0,0,0,0,0,0,0,0,0,0,0,0,0,0,0,0,0,0,0,0,0,0,0,0,0,0,0,0,0,0,0,0,0,0,0,0,0,0,0,0,0,0,0,0,0,0,0,0,0,0,0,0,0,0,0,0,0,0,0,0],"id":2,"left_children":[1,3,5,7,9,11,13,15,17,19,21,23,25,27,29,31,33,35,-1,37,39,41,43,45,47,49,51,53,-1,-1,-1,55,-1,57,59,61,63,65,67,69,71,73,75,77,79,81,83,85,87,89,91,93,95,97,99,-1,-1,-1,-1,-1,-1,-1,-1,-1,-1,-1,-1,-1,-1,-1,-1,-1,-1,-1,-1,-1,-1,-1,-1,-1,-1,-1,-1,-1,-1,-1,-1,-1,-1,-1,-1,-1,-1,-1,-1,-1,-1,-1,-1,-1,-1],"loss_changes":[1.7002466E5,1.7140352E3,2.347696E4,8.683594E0,1.3487439E2,4.944006E3,5.451953E2,4.6484375E-1,4.6342896E1,1.1082919E2,1.291959E3,2.1729219E3,1.3977383E3,1.5937585E2,2.0265625E1,2.421875E-1,4.099121E0,8.608983E1,0E0,8.4636096E2,8.985834E1,3.508972E1,1.2293884E2,1.8782861E2,1.6155488E3,4.4212793E2,2.0666849E2,1.1533041E2,0E0,0E0,0E0,1.6484741E1,0E0,1.1026993E0,5.6762695E-1,5.5324455E1,6.5680733E0,1.2883997E2,4.328839E1,5.83963E1,1.6833107E1,1.1609981E1,5.2856445E-1,1.0402893E1,3.4346655E2,1.2914429E2,3.0836182E0,6.593692E1,6.043164E2,2.657334E2,8.274902E1,8.838596E0,3.0923798E1,4.5269775E-1,1.26338005E-2,0E0,0E0,0E0,0E0,0E0,0E0,0E0,0E0,0E0,0E0,0E0,0E0,0E0,0E0,0E0,0E0,0E0,0E0,0E0,0E0,0E0,0E0,0E0,0E0,0E0,0E0,0E0,0E0,0E0,0E0,0E0,0E0,0E0,0E0,0E0,0E0,0E0,0E0,0E0,0E0,0E0,0E0,0E0,0E0,0E0,0E0],"parents":[2147483647,0,0,1,1,2,2,3,3,4,4,5,5,6,6,7,7,8,8,9,9,10,10,11,11,12,12,13,13,14,14,15,15,16,16,17,17,19,19,20,20,21,21,22,22,23,23,24,24,25,25,26,26,27,27,31,31,33,33,34,34,35,35,36,36,37,37,38,38,39,39,40,40,41,41,42,42,43,43,44,44,45,45,46,46,47,47,48,48,49,49,50,50,51,51,52,52,53,53,54,54],"right_children":[2,4,6,8,10,12,14,16,18,20,22,24,26,28,30,32,34,36,-1,38,40,42,44,46,48,50,52,54,-1,-1,-1,56,-1,58,60,62,64,66,68,70,72,74,76,78,80,82,84,86,88,90,92,94,96,98,100,-1,-1,-1,-1,-1,-1,-1,-1,-1,-1,-1,-1,-1,-1,-1,-1,-1,-1,-1,-1,-1,-1,-1,-1,-1,-1,-1,-1,-1,-1,-1,-1,-1,-1,-1,-1,-1,-1,-1,-1,-1,-1,-1,-1,-1,-1],"split_conditions":[1.424E3,9.4E2,2.928E9,7.36E2,2.736E9,4.9E1,1E0,5.16E2,7.57E2,1.279E3,2.738E3,2.856E3,1.4500502E2,2.901275E3,2.944E9,3.8290506E2,1.046E3,1.488E9,-1.6939302E-1,1.272E3,4.9E1,2.736E3,2.816E3,2E0,2.901275E3,5.3E1,2.46E2,1.441E3,3.5672513E-1,4.6944207E-1,5.0235945E-1,1.08E2,-1.714181E-1,1.038E9,1.438E3,2E0,1E0,2.3375237E3,2E0,1.368E3,2.824E3,1.279E3,1E0,2.8E3,2.824E3,2.854E9,2.063228E5,4.2E1,3E0,2.901275E3,8.486413E1,2.3955925E2,5.75E3,1.429E3,2.896E3,-1.6803223E-1,3.627907E-1,-1.5643097E-1,-1.2569171E-1,-1.704365E-1,-1.5300523E-1,3.779155E-1,-3.8709678E-2,1.12500004E-1,-1.7058462E-1,2.1528744E-3,-1.2750421E-1,6.675869E-1,3.783784E-1,-1.3121794E-1,-6.716928E-2,2.3608746E-1,-7.301092E-2,2.736842E-1,-1.8126888E-2,3.1077504E-1,4.3064988E-1,-1.293921E-1,-6.1342377E-2,3.6218745E-1,-1.1242282E-1,6.6956234E-1,-1.6182138E-1,4.8485446E-1,3.9490995E-1,1.8394262E-2,-1.0286207E-1,1.9720882E-1,1.0513768E-1,1.9054054E-1,6.118524E-1,9.1380185E-1,5.6133056E-1,-4.0525574E-2,7.61175E-2,4.4165173E-1,-3.398693E-2,5.8133334E-1,3.692308E-1,-8.955224E-2,-4.8213206E-2],"split_indices":[10,10,1,10,1,0,0,10,9,10,24,24,12,5,1,1,5,1,0,7,15,5,5,0,5,0,0,9,0,0,0,3,0,1,24,0,0,24,0,7,24,10,0,24,24,1,2,0,15,5,15,15,0,10,5,0,0,0,0,0,0,0,0,0,0,0,0,0,0,0,0,0,0,0,0,0,0,0,0,0,0,0,0,0,0,0,0,0,0,0,0,0,0,0,0,0,0,0,0,0,0],"split_type":[0,0,0,0,0,0,0,0,0,0,0,0,0,0,0,0,0,0,0,0,0,0,0,0,0,0,0,0,0,0,0,0,0,0,0,0,0,0,0,0,0,0,0,0,0,0,0,0,0,0,0,0,0,0,0,0,0,0,0,0,0,0,0,0,0,0,0,0,0,0,0,0,0,0,0,0,0,0,0,0,0,0,0,0,0,0,0,0,0,0,0,0,0,0,0,0,0,0,0,0,0],"sum_hessian":[2.8E5,1.8778288E5,9.2217125E4,1.7605962E5,1.172325E4,4.8759156E4,4.345797E4,1.7373781E5,2.3218125E3,8.363469E3,3.3597812E3,4.570497E4,3.0541875E3,1.5981875E3,4.185978E4,1.6221078E5,1.1527031E4,3.2265625E2,1.9991562E3,3.003875E3,5.3595938E3,5.8078125E2,2.779E3,1.2330938E3,4.4471875E4,2.5434062E3,5.1078125E2,1.9075E2,1.4074375E3,2.01075E3,3.984903E4,2.70375E3,1.5950703E5,5.0246875E2,1.10245625E4,1.1353125E2,2.09125E2,2.7958438E3,2.0803125E2,5.2572188E3,1.02375E2,5.075E1,5.3003125E2,2.116625E3,6.62375E2,7.6409375E2,4.69E2,5.9217812E3,3.8550094E4,1.924125E3,6.1928125E2,3.591875E2,1.5159375E2,3.5875E1,1.54875E2,2.699375E3,4.375E0,2.5046875E2,2.52E2,1.0755719E4,2.6884375E2,5.446875E1,5.90625E1,7E0,2.02125E2,1.2357188E3,1.560125E3,1.2578125E2,8.225E1,3.0323125E3,2.2249062E3,8.334375E1,1.903125E1,3.10625E1,1.96875E1,1.553125E1,5.145E2,1.8871562E3,2.2946875E2,1.9271875E2,4.6965625E2,7.4725E2,1.684375E1,6.234375E1,4.0665625E2,5.487125E3,4.3465625E2,3.0413906E4,8.1361875E3,1.47E2,1.777125E3,5.45125E2,7.415625E1,2.8678125E2,7.240625E1,1.3825E2,1.334375E1,2.7125E1,8.75E0,1.09375E0,1.5378125E2],"tree_param":{"num_deleted":"0","num_feature":"32","num_nodes":"101","size_leaf_vector":"1"}},{"base_weights":[-2.5714195E-4,6.9501895E-1,-5.0793403E-1,-5.566073E-1,3.380048E0,-2.3628089E-1,-5.3615284E-1,-5.711287E-1,-3.5089865E-1,3.4945984E0,-5.013191E-1,1.1731808E0,-5.6096226E-1,-5.694342E-1,-5.16489E-1,-1.7135853E-1,-4.2959428E-1,1.1229489E0,-4.3339288E-1,3.817662E0,3.3804398E0,1.1028341E0,-5.6148803E-1,7.516538E-1,2.4943566E0,-1.714144E-1,-1.1877729E-1,-4.842645E-1,-5.699033E-1,7.240492E-1,-5.179561E-1,-2.6297578E-1,-1.6371308E-1,-1.2690847E-1,-4.6622184E-1,3.7164993E0,1.1561114E0,-8.025038E-3,3.5879586E0,8.497409E-1,-5.689991E-1,2.176297E0,-2.037037E-1,1.0717784E0,6.7452633E-1,1.4563297E0,-3.1469473E-1,2.2163935E0,-1.7085004E-1,-1.7142485E-1,-5.6132406E-1,-1.6860525E-1,6.854981E-1,-3.317705E-1,-5.202015E-1,-1.556196E-1,3.1939164E-2,-1.263158E-2,-1.4005852E-1,3.1384617E-1,1.1157968E0,-1.17895536E-1,1.1334216E-2,1.0840342E0,6.4360565E-1,5.562914E-2,5.5135137E-1,-1.7126489E-1,-1.0796916E-1,9.3901986E-1,5.359924E-1,-4.22153E-3,-1.1341295E-1,1.0144929E0,2.78673E-1,-1.3056493E-1,2.4974619E-1,1.0010363E0,6.666667E-2,-7.94702E-3,-1.6846931E-1,-1.712164E-1,9.86126E-2,-1.5912972E-1,-1.537494E-1],"categories":[],"categories_nodes":[],"categories_segments":[],"categories_sizes":[],"default_left":[0,0,0,0,0,0,0,0,0,0,0,0,0,0,0,0,0,0,0,0,0,0,0,0,0,0,0,0,0,0,0,0,0,0,0,0,0,0,0,0,0,0,0,0,0,0,0,0,0,0,0,0,0,0,0,0,0,0,0,0,0,0,0,0,0,0,0,0,0,0,0,0,0,0,0,0,0,0,0,0,0,0,0,0,0],"id":3,"left_children":[1,3,5,7,9,11,13,15,17,19,21,23,25,27,29,-1,31,-1,33,35,37,-1,39,41,43,-1,45,47,49,51,53,55,-1,-1,57,59,-1,61,63,65,67,69,71,-1,-1,73,75,77,-1,-1,79,-1,-1,81,83,-1,-1,-1,-1,-1,-1,-1,-1,-1,-1,-1,-1,-1,-1,-1,-1,-1,-1,-1,-1,-1,-1,-1,-1,-1,-1,-1,-1,-1,-1],"loss_changes":[9.883388E4,3.971235E5,1.2404492E3,2.405625E2,1.6706125E4,6.970673E3,9.564844E1,4.6289062E-1,1.7973882E3,1.333E3,2.7299765E2,1.5864185E3,5.6967773E1,1.8984375E0,1.6810938E2,0E0,6.164684E-1,0E0,1.5765991E0,2.040625E1,1.8967312E4,0E0,1.17561035E1,2.9451465E3,1.7478174E2,0E0,8.879245E1,7.143491E1,3.828125E-1,2.2066399E2,3.83125E1,1.7618884E0,0E0,0E0,3.1713867E-1,1.5175781E1,0E0,2.7481052E1,9.2684375E2,3.6181402E0,2.114563E-1,3.1720166E2,4.2840866E1,0E0,0E0,2.9194427E1,3.567486E1,2.0553757E1,0E0,0E0,1.0354004E0,0E0,0E0,1.737573E2,6.8984375E0,0E0,0E0,0E0,0E0,0E0,0E0,0E0,0E0,0E0,0E0,0E0,0E0,0E0,0E0,0E0,0E0,0E0,0E0,0E0,0E0,0E0,0E0,0E0,0E0,0E0,0E0,0E0,0E0,0E0,0E0],"parents":[2147483647,0,0,1,1,2,2,3,3,4,4,5,5,6,6,7,7,8,8,9,9,10,10,11,11,12,12,13,13,14,14,16,16,18,18,19,19,20,20,22,22,23,23,24,24,26,26,27,27,28,28,29,29,30,30,31,31,34,34,35,35,37,37,38,38,39,39,40,40,41,41,42,42,45,45,46,46,47,47,50,50,53,53,54,54],"right_children":[2,4,6,8,10,12,14,16,18,20,22,24,26,28,30,-1,32,-1,34,36,38,-1,40,42,44,-1,46,48,50,52,54,56,-1,-1,58,60,-1,62,64,66,68,70,72,-1,-1,74,76,78,-1,-1,80,-1,-1,82,84,-1,-1,-1,-1,-1,-1,-1,-1,-1,-1,-1,-1,-1,-1,-1,-1,-1,-1,-1,-1,-1,-1,-1,-1,-1,-1,-1,-1,-1,-1],"split_conditions":[2.0176615E3,4.02E2,2.608E3,4E2,2.0661798E0,3E0,5.01E8,6.5535E4,4.01E2,8.8E2,1.3812369E3,1.279E3,4.42E2,6.798698E3,2.618E3,-1.7135853E-1,2E0,1.1229489E0,2E0,8.1E8,8.84E2,1.1028341E0,6.798698E3,1.196E3,2.56E3,-1.714144E-1,1.12E3,4.064124E0,5.05E2,1.308E3,2.694E3,7.656698E1,-1.6371308E-1,-1.2690847E-1,1.0177778E7,1.0177778E7,1.1561114E0,1E0,1.92E3,9.85356E5,4.63E2,2.1169268E3,1.23E3,1.0717784E0,6.7452633E-1,2E0,1.279E3,5.28E3,-1.7085004E-1,-1.7142485E-1,2.618E3,-1.6860525E-1,6.854981E-1,2.672E3,2.736E9,-1.556196E-1,3.1939164E-2,-1.263158E-2,-1.4005852E-1,3.1384617E-1,1.1157968E0,-1.17895536E-1,1.1334216E-2,1.0840342E0,6.4360565E-1,5.562914E-2,5.5135137E-1,-1.7126489E-1,-1.0796916E-1,9.3901986E-1,5.359924E-1,-4.22153E-3,-1.1341295E-1,1.0144929E0,2.78673E-1,-1.3056493E-1,2.4974619E-1,1.0010363E0,6.666667E-2,-7.94702E-3,-1.6846931E-1,-1.712164E-1,9.86126E-2,-1.5912972E-1,-1.537494E-1],"split_indices":[5,10,5,10,3,0,1,26,7,5,1,10,10,1,24,0,15,0,0,1,5,0,1,10,5,0,9,3,10,10,5,7,0,0,1,1,0,0,5,0,7,24,10,0,0,15,10,5,0,0,24,0,0,24,1,0,0,0,0,0,0,0,0,0,0,0,0,0,0,0,0,0,0,0,0,0,0,0,0,0,0,0,0,0,0],"split_type":[0,0,0,0,0,0,0,0,0,0,0,0,0,0,0,0,0,0,0,0,0,0,0,0,0,0,0,0,0,0,0,0,0,0,0,0,0,0,0,0,0,0,0,0,0,0,0,0,0,0,0,0,0,0,0,0,0,0,0,0,0,0,0,0,0,0,0,0,0,0,0,0,0,0,0,0,0,0,0,0,0,0,0,0,0],"sum_hessian":[2.8E5,1.18167E5,1.61833E5,8.059734E4,3.7569656E4,1.52298125E4,1.4660319E5,7.528128E4,5.3160625E3,3.649275E4,1.0769062E3,2.8509688E3,1.2378844E4,5.4437906E4,9.216528E4,7.5243E4,3.828125E1,1.04125E2,5.2119375E3,9.519781E3,2.6972969E4,1.44375E1,1.0624688E3,2.1625625E3,6.8840625E2,1.2093594E4,2.8525E2,3.0384375E2,5.4134062E4,1.0828125E2,9.2057E4,1.70625E1,2.121875E1,3.9718438E3,1.2400938E3,2.5280938E3,6.9916875E3,1.556625E3,2.5416344E4,5.03125E0,1.0574375E3,8.675625E2,1.295E3,1.2534375E2,5.630625E2,3.084375E1,2.5440625E2,8.53125E0,2.953125E2,4.5963312E4,8.17075E3,5.971875E1,4.85625E1,1.0987812E3,9.095822E4,9.84375E0,7.21875E0,1.96875E0,1.238125E3,3.0625E0,2.5250312E3,1.6471875E2,1.3919062E3,2.4973594E4,4.4275E2,3.71875E0,1.3125E0,1.0462812E3,1.115625E1,2.4959375E2,6.1796875E2,6.208125E2,6.741875E2,5.46875E0,2.5375E1,2.3078125E2,2.3625E1,5.03125E0,3.5E0,3.71875E0,8.1670312E3,8.0696875E2,2.918125E2,3.904097E4,5.191725E4],"tree_param":{"num_deleted":"0","num_feature":"32","num_nodes":"85","size_leaf_vector":"1"}},{"base_weights":[-7.228546E-3,-4.5036379E-1,3.5966039E0,-5.3416395E-1,2.0592979E-1,-1.71353E-1,3.929453E0,-4.5993003E-1,-5.7137036E-1,3.3355517E0,-5.53403E-1,3.9702177E0,-1.7075853E-1,-5.434146E-1,3.4138513E0,5.3731345E-2,-5.7137716E-1,3.6675584E0,-5.6549335E-1,-5.6134266E-1,2.4406428E0,-1.6920584E-1,3.9825382E0,-3.7814716E-1,-5.664378E-1,1.1402602E0,3.3653557E0,1.48148155E-2,-1.714152E-1,-5.6174254E-1,1.1992998E0,-1.710319E-1,1.9701493E-1,-5.664087E-1,2.3872E0,3.85377E0,-1.6296296E-1,3.987158E0,-1.656051E-1,-1.3964921E-1,5.074065E-1,-1.6318256E-1,-1.7038545E-1,1.0156554E0,8.3166873E-1,-1.7014468E-1,1.3333334E-1,-1.07451476E-1,-1.7047113E-1,2.1492538E-1,1.0455765E0,1.1699531E0,3.4029853E-1,1.1969653E0,7.8327984E-1],"categories":[],"categories_nodes":[],"categories_segments":[],"categories_sizes":[],"default_left":[0,0,0,0,0,0,0,0,0,0,0,0,0,0,0,0,0,0,0,0,0,0,0,0,0,0,0,0,0,0,0,0,0,0,0,0,0,0,0,0,0,0,0,0,0,0,0,0,0,0,0,0,0,0,0],"id":4,"left_children":[1,3,5,7,9,-1,11,13,15,17,19,21,-1,23,25,-1,27,29,31,33,35,-1,37,39,41,-1,43,-1,-1,45,-1,-1,-1,47,49,51,-1,53,-1,-1,-1,-1,-1,-1,-1,-1,-1,-1,-1,-1,-1,-1,-1,-1,-1],"loss_changes":[4.471591E5,1.3713316E4,4.2534625E4,6.104336E2,6.7096695E4,0E0,5.2090312E3,2.3877492E4,8.5546875E-1,7.142168E3,5.4150195E2,1.574125E3,0E0,2.7477148E2,1.644336E1,0E0,6.5234375E-1,7.095383E3,2.8170624E0,3.3987158E2,2.5627307E2,0E0,5.9003125E2,1.5987725E3,1.8515625E0,0E0,7.272461E0,0E0,0E0,2.257843E0,0E0,0E0,0E0,8.410645E0,6.916756E1,7.1728516E-1,0E0,9.475E1,0E0,0E0,0E0,0E0,0E0,0E0,0E0,0E0,0E0,0E0,0E0,0E0,0E0,0E0,0E0,0E0,0E0],"parents":[2147483647,0,0,1,1,2,2,3,3,4,4,6,6,7,7,8,8,9,9,10,10,11,11,13,13,14,14,16,16,17,17,18,18,19,19,20,20,22,22,23,23,24,24,26,26,29,29,33,33,34,34,35,35,37,37],"right_children":[2,4,6,8,10,-1,12,14,16,18,20,22,-1,24,26,-1,28,30,32,34,36,-1,38,40,42,-1,44,-1,-1,46,-1,-1,-1,48,50,52,-1,54,-1,-1,-1,-1,-1,-1,-1,-1,-1,-1,-1,-1,-1,-1,-1,-1,-1],"split_conditions":[4.4E3,4E0,3.75E2,8.84E2,3.898513E4,-1.71353E-1,4.42E2,4.4E2,1.0223941E0,4.45E2,4.38E2,4.4E2,-1.7075853E-1,3.5E2,1E0,5.3731345E-2,3.8290506E2,4.4E2,7.20158E0,6.5535E4,4.42E2,-1.6920584E-1,4.45E2,1.5494738E8,4.58E2,1.1402602E0,4.8E1,1.48148155E-2,-1.714152E-1,9.476047E-9,1.1992998E0,-1.710319E-1,1.9701493E-1,1.4711963E-1,2E0,9.236037E5,-1.6296296E-1,1.7732978E5,-1.656051E-1,-1.3964921E-1,5.074065E-1,-1.6318256E-1,-1.7038545E-1,1.0156554E0,8.3166873E-1,-1.7014468E-1,1.3333334E-1,-1.07451476E-1,-1.7047113E-1,2.1492538E-1,1.0455765E0,1.1699531E0,3.4029853E-1,1.1969653E0,7.8327984E-1],"split_indices":[24,22,7,5,0,0,7,10,3,9,10,9,0,24,0,0,1,9,3,26,10,0,9,1,5,0,0,0,0,17,0,0,0,9,15,13,0,14,0,0,0,0,0,0,0,0,0,0,0,0,0,0,0,0,0],"split_type":[0,0,0,0,0,0,0,0,0,0,0,0,0,0,0,0,0,0,0,0,0,0,0,0,0,0,0,0,0,0,0,0,0,0,0,0,0,0,0,0,0,0,0,0,0,0,0,0,0,0,0,0,0,0,0],"sum_hessian":[2.8E5,2.4934131E5,3.0658688E4,2.2110878E5,2.8232531E4,2.2673438E3,2.8391344E4,7.382572E4,1.4728306E5,5.5118438E3,2.2720688E4,2.81365E4,2.5484375E2,7.226909E4,1.556625E3,1.09375E0,1.4728197E5,5.0795938E3,4.3225E2,2.2661406E4,5.928125E1,7.6125E1,2.8060375E4,8.8388125E3,6.343028E4,1.6471875E2,1.3919062E3,1.53125E0,1.4728044E5,3.6771875E2,4.711875E3,4.3115625E2,1.09375E0,2.2623344E4,3.80625E1,4.003125E1,1.925E1,2.8031938E4,2.84375E1,8.481594E3,3.5721875E2,4.0217188E3,5.9408562E4,1.3415938E3,5.03125E1,3.661875E2,1.53125E0,1.98625E2,2.2424719E4,1.575E1,2.23125E1,3.89375E1,1.09375E0,2.7974625E4,5.73125E1],"tree_param":{"num_deleted":"0","num_feature":"32","num_nodes":"55","size_leaf_vector":"1"}},{"base_weights":[-6.6428335E-4,2.733144E0,-5.576862E-1,-5.065146E-1,3.7747586E0,2.0805496E-1,-5.6150615E-1,-5.593425E-1,1.3729452E0,3.7764294E0,-1.5983087E-1,1.1037476E0,-3.2630172E-1,-5.6193554E-1,9.480642E-1,-5.6513816E-1,-1.5083909E-1,-1.6884707E-1,1.8813242E0,3.8005197E0,3.6963792E0,3.0866065E0,2.6694003E-1,2.4261634E-1,-5.683383E-1,-5.3608245E-1,-5.694033E-1,1.1350474E0,-1.6754076E-1,-5.675558E-1,-4.8397896E-1,1.618169E-1,-1.6059676E-1,1.2912658E0,2.940472E0,1.1424304E0,3.6894126E0,3.7777152E0,3.5918458E0,5.4638296E-1,9.4127315E-1,7.464115E-1,-2.3894362E-1,1.7197605E0,-2.2402413E-1,-3.5744682E-1,-1.7108719E-1,-5.640104E-1,-5.198123E-1,-5.582404E-1,-5.7069165E-1,-1.7089164E-1,-1.5172414E-1,-1.5161064E-1,-1.3793104E-2,6.352942E-1,-1.0140845E-1,9.380231E-1,1.3035466E-1,1.0258863E0,3.505618E-2,1.1366194E0,1.0002816E0,1.1336206E0,-8.955224E-2,1.0916935E0,9.1415393E-1,-3.8709678E-2,2.4516685E-1,-1.0051474E-1,1.6559547E-1,9.3796533E-1,3.722864E-1,2.0805605E-1,-9.974811E-2,5.3731345E-2,-1.4400001E-1,-1.518115E-1,-1.706032E-1,-1.4381002E-1,-1.5638708E-1,-1.5611482E-1,-1.7135131E-1,-1.7120937E-1,-4.137931E-2],"categories":[],"categories_nodes":[],"categories_segments":[],"categories_sizes":[],"default_left":[0,0,0,0,0,0,0,0,0,0,0,0,0,0,0,0,0,0,0,0,0,0,0,0,0,0,0,0,0,0,0,0,0,0,0,0,0,0,0,0,0,0,0,0,0,0,0,0,0,0,0,0,0,0,0,0,0,0,0,0,0,0,0,0,0,0,0,0,0,0,0,0,0,0,0,0,0,0,0,0,0,0,0,0,0],"id":5,"left_children":[1,3,5,7,9,11,13,15,17,19,-1,21,23,25,27,29,31,-1,33,35,37,39,41,43,45,47,49,-1,-1,51,53,55,-1,57,59,-1,61,63,65,-1,-1,67,69,71,73,75,-1,77,79,81,83,-1,-1,-1,-1,-1,-1,-1,-1,-1,-1,-1,-1,-1,-1,-1,-1,-1,-1,-1,-1,-1,-1,-1,-1,-1,-1,-1,-1,-1,-1,-1,-1,-1,-1],"loss_changes":[4.2638462E5,1.5993347E5,6.805078E2,1.1457314E3,2.60125E2,5.5333E2,1.505625E2,2.6471924E1,3.1160522E2,5.509375E1,0E0,7.158777E2,9.988787E1,4.4367188E1,2.848438E2,1.895752E0,1.9113777E1,0E0,1.5254053E2,9.125E0,5.725E1,2.546997E0,7.412027E1,1.498977E2,5.508423E-3,2.3277344E1,2.2617188E0,0E0,0E0,1.0935059E0,3.0377197E0,8.6806786E1,0E0,2.5408185E2,1.1963092E2,0E0,5.0509766E1,2.0515625E1,8.300781E1,0E0,0E0,9.822586E0,1.1517945E1,3.1272537E1,1.6723854E1,5.688664E-1,0E0,4.8759766E0,1.7099609E0,8.818848E0,3.5546875E-1,0E0,0E0,0E0,0E0,0E0,0E0,0E0,0E0,0E0,0E0,0E0,0E0,0E0,0E0,0E0,0E0,0E0,0E0,0E0,0E0,0E0,0E0,0E0,0E0,0E0,0E0,0E0,0E0,0E0,0E0,0E0,0E0,0E0,0E0],"parents":[2147483647,0,0,1,1,2,2,3,3,4,4,5,5,6,6,7,7,8,8,9,9,11,11,12,12,13,13,14,14,15,15,16,16,18,18,19,19,20,20,21,21,22,22,23,23,24,24,25,25,26,26,29,29,30,30,31,31,33,33,34,34,36,36,37,37,38,38,41,41,42,42,43,43,44,44,45,45,47,47,48,48,49,49,50,50],"right_children":[2,4,6,8,10,12,14,16,18,20,-1,22,24,26,28,30,32,-1,34,36,38,40,42,44,46,48,50,-1,-1,52,54,56,-1,58,60,-1,62,64,66,-1,-1,68,70,72,74,76,-1,78,80,82,84,-1,-1,-1,-1,-1,-1,-1,-1,-1,-1,-1,-1,-1,-1,-1,-1,-1,-1,-1,-1,-1,-1,-1,-1,-1,-1,-1,-1,-1,-1,-1,-1,-1,-1],"split_conditions":[5.66E2,2.11E2,7.14E2,1.7230037E2,2.75E2,2E0,1.4002298E7,2.29E8,3.5E2,2E0,-1.5983087E-1,2.96E2,6.5E1,1.398E3,2.012522E-3,8E1,3.3E8,-1.6884707E-1,3.75E8,4.94E2,1.0977778E7,1E0,3.2E2,2.96E2,1E0,4.02E2,2.072E3,1.1350474E0,-1.6754076E-1,9.9998987E-1,4.7E1,2.792124E2,-1.6059676E-1,3.6055164E2,3.88E8,1.1424304E0,5.01E8,2.06E2,4.94E2,5.4638296E-1,9.4127315E-1,1E0,3.495E2,1.2137931E7,1.3363636E7,2.0087843E0,-1.7108719E-1,3.75E2,1E0,1.9248964E0,6.5535E4,-1.7089164E-1,-1.5172414E-1,-1.5161064E-1,-1.3793104E-2,6.352942E-1,-1.0140845E-1,9.380231E-1,1.3035466E-1,1.0258863E0,3.505618E-2,1.1366194E0,1.0002816E0,1.1336206E0,-8.955224E-2,1.0916935E0,9.1415393E-1,-3.8709678E-2,2.4516685E-1,-1.0051474E-1,1.6559547E-1,9.3796533E-1,3.722864E-1,2.0805605E-1,-9.974811E-2,5.3731345E-2,-1.4400001E-1,-1.518115E-1,-1.706032E-1,-1.4381002E-1,-1.5638708E-1,-1.5611482E-1,-1.7135131E-1,-1.7120937E-1,-4.137931E-2],"split_indices":[24,10,24,7,10,0,13,1,24,0,0,10,12,5,4,10,1,0,1,5,1,0,7,10,15,10,5,0,0,17,15,5,0,5,1,0,1,0,5,0,0,0,7,1,1,4,0,9,0,11,26,0,0,0,0,0,0,0,0,0,0,0,0,0,0,0,0,0,0,0,0,0,0,0,0,0,0,0,0,0,0,0,0,0,0],"split_type":[0,0,0,0,0,0,0,0,0,0,0,0,0,0,0,0,0,0,0,0,0,0,0,0,0,0,0,0,0,0,0,0,0,0,0,0,0,0,0,0,0,0,0,0,0,0,0,0,0,0,0,0,0,0,0,0,0,0,0,0,0,0,0,0,0,0,0,0,0,0,0,0,0,0,0,0,0,0,0,0,0,0,0,0,0],"sum_hessian":[2.8E5,4.73935E4,2.326065E5,1.153075E4,3.586275E4,1.1543438E3,2.3145216E5,1.12161875E4,3.145625E2,3.584897E4,1.378125E1,4.309375E2,7.2340625E2,2.3138697E5,6.51875E1,1.1058906E4,1.5728125E2,6.540625E1,2.4915625E2,2.75205E4,8.328469E3,1.2709375E2,3.0384375E2,2.1590625E2,5.075E2,5.187372E4,1.7951325E5,2.209375E1,4.309375E1,1.07331875E4,3.2571875E2,8.70625E1,7.021875E1,1.614375E2,8.771875E1,2.5731344E4,1.7891562E3,4.6641875E3,3.6642812E3,6.34375E0,1.2075E2,1.5575E2,1.4809375E2,5.11875E1,1.6471875E2,6.34375E0,5.0115625E2,1.9083312E4,3.2790406E4,1.8619562E4,1.6089369E5,1.03753125E4,3.57875E2,3.1040625E2,1.53125E1,1.70625E1,7E1,5.053125E1,1.1090625E2,7.48125E1,1.290625E1,1.3905938E3,3.985625E2,4.6630938E3,1.09375E0,3.3672188E3,2.970625E2,1.159375E1,1.4415625E2,1.325625E2,1.553125E1,1.159375E1,3.959375E1,1.684375E1,1.47875E2,1.09375E0,5.25E0,1.4299688E3,1.7653344E4,1.1674688E3,3.1622938E4,4.7510312E3,1.3868531E4,1.6089106E5,2.625E0],"tree_param":{"num_deleted":"0","num_feature":"32","num_nodes":"85","size_leaf_vector":"1"}},{"base_weights":[-7.071403E-4,-5.2571577E-1,9.0983033E-1,-4.1901487E-1,-5.6455046E-1,1.933199E0,-2.8579822E-1,-5.626206E-1,-3.728277E-1,-5.690983E-1,1.7846444E-1,-2.1591601E-1,2.3060832E0,1.2066115E0,-2.877064E-1,-5.6296426E-1,2.7906978E-1,-3.8882324E-1,-3.199742E-1,-5.6983864E-1,-4.4099092E-1,-3.034327E-1,7.8463453E-1,2.3283088E0,-3.657953E-1,3.0014112E0,2.1734653E0,7.123288E-1,7.6535434E-1,-4.815035E-1,-2.7153453E-1,-5.680678E-1,-5.0514746E-1,-1.0370371E-1,6.178862E-1,-3.8545373E-1,-4.6927375E-1,-2.626296E-1,-3.5974723E-1,-5.7057714E-1,-5.294228E-1,-1.2613875E-1,-5.087363E-1,8.108108E-1,-3.5122812E-1,2.707521E0,6.515151E-1,3.5498133E0,1.9375339E0,3.5437107E-1,-3.8625625E-1,1.4307034E0,3.2256362E0,2.2261229E0,1.1003971E0,1.3416407E0,-1.4291117E-1,-2.1227887E-1,-4.8589498E-1,6.3013196E-1,-2.8633314E-1,-1.7050406E-1,-1.04854375E-1,3.535963E-1,-1.5868501E-1,-0E0,3.4029853E-1,-1.1983641E-1,-1.15183786E-1,-8.598132E-2,-1.4218806E-1,-7.761921E-2,-9.426752E-2,-1.0289188E-1,-1.2045404E-1,-1.7118497E-1,-1.10091746E-1,-9.767307E-2,-1.6864307E-1,-1.13528505E-1,1.9325845E-1,-1.4609393E-1,-1.6593495E-1,3.2550606E-1,-1.2923078E-1,-1.5110256E-1,-3.3539675E-2,9.141857E-1,3.4189945E-1,1.16546154E-1,3.509466E-1,1.3333334E-1,1.0769948E0,4.5479456E-1,7.6017624E-1,-1.0075523E-1,2.0668113E-1,-9.002197E-2,-1.3341177E-1,-7.77667E-2,4.6481425E-1,6.199527E-1,9.9948317E-1,6.404158E-1,8.77832E-1,3.3834342E-2,8.0455446E-1,2.7743733E-1,6.801444E-1,-8.712242E-2,6.268657E-1,-1.7032103E-1,-1.4461426E-1,-1.6150877E-1,-8.3353974E-2],"categories":[],"categories_nodes":[],"categories_segments":[],"categories_sizes":[],"default_left":[0,0,0,0,0,0,0,0,0,0,0,0,0,0,0,0,0,0,0,0,0,0,0,0,0,0,0,0,0,0,0,0,0,0,0,0,0,0,0,0,0,0,0,0,0,0,0,0,0,0,0,0,0,0,0,0,0,0,0,0,0,0,0,0,0,0,0,0,0,0,0,0,0,0,0,0,0,0,0,0,0,0,0,0,0,0,0,0,0,0,0,0,0,0,0,0,0,0,0,0,0,0,0,0,0,0,0,0,0,0,0,0,0,0,0],"id":6,"left_children":[1,3,5,7,9,11,13,15,17,19,21,23,25,27,29,31,33,35,37,39,41,43,45,47,49,51,53,55,-1,57,59,61,63,-1,65,67,69,71,73,75,77,79,81,83,85,87,89,91,93,95,97,99,101,103,105,107,-1,109,111,-1,113,-1,-1,-1,-1,-1,-1,-1,-1,-1,-1,-1,-1,-1,-1,-1,-1,-1,-1,-1,-1,-1,-1,-1,-1,-1,-1,-1,-1,-1,-1,-1,-1,-1,-1,-1,-1,-1,-1,-1,-1,-1,-1,-1,-1,-1,-1,-1,-1,-1,-1,-1,-1,-1,-1],"loss_changes":[1.3385217E5,7.356797E2,1.2529702E5,3.1414648E2,4.4008203E2,4.421703E4,1.3484058E2,3.49292E0,3.01958E1,1.20234375E1,2.318461E2,3.112036E3,4.329172E3,3.8390884E1,1.4769653E2,3.1142578E0,1.3513442E0,7.2807617E0,1.8922058E1,3.5390625E0,1.5891159E1,2.3847115E1,8.819467E1,2.0984668E2,1.13684326E2,2.6469062E3,2.2289844E3,3.4769478E1,0E0,4.1904297E0,1.5288442E3,4.4677734E-1,3.845906E1,0E0,1.2265501E0,4.0478516E-1,8.075409E-1,6.0635376E-1,3.3095703E0,8.0078125E-1,1.531012E1,2.6243784E1,3.247223E-1,6.7657747E0,1.5454021E1,8.4796295E0,4.4534164E1,1.1981567E1,8.319299E1,4.9512165E1,3.7613525E1,1.8938171E2,8.0228125E2,2.4021562E3,2.88793E3,9.513451E0,0E0,1.1408474E1,8.512573E-1,0E0,9.239502E1,0E0,0E0,0E0,0E0,0E0,0E0,0E0,0E0,0E0,0E0,0E0,0E0,0E0,0E0,0E0,0E0,0E0,0E0,0E0,0E0,0E0,0E0,0E0,0E0,0E0,0E0,0E0,0E0,0E0,0E0,0E0,0E0,0E0,0E0,0E0,0E0,0E0,0E0,0E0,0E0,0E0,0E0,0E0,0E0,0E0,0E0,0E0,0E0,0E0,0E0,0E0,0E0,0E0,0E0],"parents":[2147483647,0,0,1,1,2,2,3,3,4,4,5,5,6,6,7,7,8,8,9,9,10,10,11,11,12,12,13,13,14,14,15,15,16,16,17,17,18,18,19,19,20,20,21,21,22,22,23,23,24,24,25,25,26,26,27,27,29,29,30,30,31,31,32,32,34,34,35,35,36,36,37,37,38,38,39,39,40,40,41,41,42,42,43,43,44,44,45,45,46,46,47,47,48,48,49,49,50,50,51,51,52,52,53,53,54,54,55,55,57,57,58,58,60,60],"right_children":[2,4,6,8,10,12,14,16,18,20,22,24,26,28,30,32,34,36,38,40,42,44,46,48,50,52,54,56,-1,58,60,62,64,-1,66,68,70,72,74,76,78,80,82,84,86,88,90,92,94,96,98,100,102,104,106,108,-1,110,112,-1,114,-1,-1,-1,-1,-1,-1,-1,-1,-1,-1,-1,-1,-1,-1,-1,-1,-1,-1,-1,-1,-1,-1,-1,-1,-1,-1,-1,-1,-1,-1,-1,-1,-1,-1,-1,-1,-1,-1,-1,-1,-1,-1,-1,-1,-1,-1,-1,-1,-1,-1,-1,-1,-1,-1],"split_conditions":[1.196E3,5.66E2,2.896E9,2.11E2,1.036E3,4.83E8,2.816E3,1.26E2,2E0,9.4E2,2.311668E3,1.416E3,1.424E9,2.738E3,2.901275E3,4.7830864E1,5.683351E6,5.5E8,3E0,7.36E2,1.006E9,5.888E7,8.3333336E7,2.522E3,1.0560009E1,8.78E8,2.832E9,2.736E3,7.6535434E-1,2.896E3,2.928E9,6.5535E4,6.238408E1,-1.0370371E-1,9.636619E3,4.58E8,2.24E2,4.94E2,4.9E1,6.5535E4,7.57E2,9.9E8,1.9859397E3,5E1,2.208E3,4.8E1,2.3766914E3,3.3333334E7,2.738E3,2E0,6.0333332E7,1.23E3,2.618E3,2.628E9,2.854E9,1.333E3,-1.4291117E-1,1.441E3,1E0,6.3013196E-1,1E0,-1.7050406E-1,-1.04854375E-1,3.535963E-1,-1.5868501E-1,-0E0,3.4029853E-1,-1.1983641E-1,-1.15183786E-1,-8.598132E-2,-1.4218806E-1,-7.761921E-2,-9.426752E-2,-1.0289188E-1,-1.2045404E-1,-1.7118497E-1,-1.10091746E-1,-9.767307E-2,-1.6864307E-1,-1.13528505E-1,1.9325845E-1,-1.4609393E-1,-1.6593495E-1,3.2550606E-1,-1.2923078E-1,-1.5110256E-1,-3.3539675E-2,9.141857E-1,3.4189945E-1,1.16546154E-1,3.509466E-1,1.3333334E-1,1.0769948E0,4.5479456E-1,7.6017624E-1,-1.0075523E-1,2.0668113E-1,-9.002197E-2,-1.3341177E-1,-7.77667E-2,4.6481425E-1,6.199527E-1,9.9948317E-1,6.404158E-1,8.77832E-1,3.3834342E-2,8.0455446E-1,2.7743733E-1,6.801444E-1,-8.712242E-2,6.268657E-1,-1.7032103E-1,-1.4461426E-1,-1.6150877E-1,-8.3353974E-2],"split_indices":[10,24,1,10,10,1,5,3,0,10,5,10,1,24,5,10,0,1,0,10,1,1,1,5,15,1,1,5,0,5,1,26,9,0,2,1,10,5,0,26,9,1,24,0,5,15,5,1,24,15,1,10,24,1,1,10,0,9,0,0,0,0,0,0,0,0,0,0,0,0,0,0,0,0,0,0,0,0,0,0,0,0,0,0,0,0,0,0,0,0,0,0,0,0,0,0,0,0,0,0,0,0,0,0,0,0,0,0,0,0,0,0,0,0,0],"split_type":[0,0,0,0,0,0,0,0,0,0,0,0,0,0,0,0,0,0,0,0,0,0,0,0,0,0,0,0,0,0,0,0,0,0,0,0,0,0,0,0,0,0,0,0,0,0,0,0,0,0,0,0,0,0,0,0,0,0,0,0,0,0,0,0,0,0,0,0,0,0,0,0,0,0,0,0,0,0,0,0,0,0,0,0,0,0,0,0,0,0,0,0,0,0,0,0,0,0,0,0,0,0,0,0,0,0,0,0,0,0,0,0,0,0,0],"sum_hessian":[2.8E5,1.7759853E5,1.0240147E5,4.73935E4,1.3020503E5,5.5175094E4,4.7226375E4,1.153075E4,3.586275E4,1.2941316E5,7.91875E2,8.1578438E3,4.701725E4,5.95E1,4.7166875E4,1.1526375E4,4.375E0,2.7525969E4,8.336781E3,1.28666125E5,7.4703125E2,4.414375E2,3.504375E2,4.5303125E2,7.7048125E3,7.527625E3,3.9489625E4,4.4625E1,1.4875E1,3.6305938E3,4.353628E4,1.0583344E4,9.4303125E2,1.53125E0,2.84375E0,2.6425E4,1.1009688E3,3.4173125E3,4.9194688E3,1.2634431E5,2.3218125E3,1.3278125E2,6.1425E2,1.75E1,4.239375E2,2.14375E1,3.29E2,1.0784375E2,3.451875E2,2.1240625E2,7.4924062E3,9.4128125E2,6.5863438E3,3.7641406E4,1.8482188E3,2.909375E1,1.553125E1,5.90625E1,3.5715312E3,2.690625E2,4.326722E4,1.056825E4,1.509375E1,1.246875E1,9.305625E2,1.75E0,1.09375E0,2.5434062E3,2.3881594E4,2.909375E1,1.071875E3,3.1828125E3,2.345E2,3.5164062E3,1.4030625E3,1.2631806E5,2.625E1,3.2265625E2,1.9991562E3,1.0040625E2,3.2375E1,4.2021875E2,1.9403125E2,1.44375E1,3.0625E0,2.5834375E2,1.6559375E2,1.684375E1,4.59375E0,2.1940625E2,1.0959375E2,1.53125E0,1.063125E2,2.043125E2,1.40875E2,6.934375E1,1.430625E2,3.0303438E3,4.4620625E3,6.16875E1,8.7959375E2,5.534375E2,6.0329062E3,3.329747E4,4.3439375E3,1.138375E3,7.0984375E2,2.14375E1,7.65625E0,5.796875E1,1.09375E0,1.5378125E2,3.41775E3,1.4074375E3,4.185978E4],"tree_param":{"num_deleted":"0","num_feature":"32","num_nodes":"115","size_leaf_vector":"1"}},{"base_weights":[-1.1857101E-3,3.2083554E0,-2.3964725E-1,-5.6695664E-1,3.9718761E0,6.088143E-1,-5.1110995E-1,-5.6846225E-1,-4.0114614E-1,3.9958804E0,-4.8458782E-1,-5.575347E-1,3.8702679E0,1.8511287E0,-5.183668E-1,-1.7063121E-1,-0E0,-4.8140043E-1,1.21212125E-1,1.1999251E0,-1.5965666E-1,-5.3996176E-1,2.8985506E-1,-5.6985915E-1,1.3705112E0,2.42584E0,3.8847926E0,3.913077E0,-4.9543104E-1,-4.4663927E-1,-5.4643303E-1,-2.8169015E-1,-1.6314201E-1,3.5772356E-1,-9.7297296E-2,-1.6920584E-1,-1.1173184E-1,6.268657E-1,-1.3953489E-1,-5.7060814E-1,-4.9169993E-1,2.061578E0,-1.6924912E-1,3.0895295E0,1.7693137E0,3.9703064E0,3.7413461E0,3.9716954E0,-1.3818182E-1,-5.6523347E-1,8.8176355E-2,-4.765752E-1,-1.914323E-1,1.6013888E-1,-5.5369496E-1,8.8421054E-2,-1.4660634E-1,-0E0,1.9701493E-1,-1.3333334E-1,1.9701493E-1,-1.7119554E-1,-3.3519555E-2,-1.4861996E-1,-3.3519555E-2,1.1385404E0,5.5014443E-1,1.0060077E0,7.182796E-1,-1.5426622E-1,8.330579E-1,1.1912075E0,5.3731345E-2,9.3739367E-1,1.1562052E0,1.196213E0,-8.955224E-2,-1.7074746E-1,-1.263158E-2,9.767442E-1,-1.6503496E-1,-1.1769692E-1,-1.6248576E-1,-1.3296326E-1,1.144186E0,4.596645E-1,-1.3487834E-1,-1.3008498E-1,-1.6667908E-1],"categories":[],"categories_nodes":[],"categories_segments":[],"categories_sizes":[],"default_left":[0,0,0,0,0,0,0,0,0,0,0,0,0,0,0,0,0,0,0,0,0,0,0,0,0,0,0,0,0,0,0,0,0,0,0,0,0,0,0,0,0,0,0,0,0,0,0,0,0,0,0,0,0,0,0,0,0,0,0,0,0,0,0,0,0,0,0,0,0,0,0,0,0,0,0,0,0,0,0,0,0,0,0,0,0,0,0,0,0],"id":7,"left_children":[1,3,5,7,9,11,13,15,17,19,21,23,25,27,29,-1,-1,31,33,-1,-1,35,37,39,41,43,45,47,49,51,53,55,-1,57,-1,-1,59,-1,-1,61,63,65,-1,67,69,71,73,75,-1,77,79,81,83,85,87,-1,-1,-1,-1,-1,-1,-1,-1,-1,-1,-1,-1,-1,-1,-1,-1,-1,-1,-1,-1,-1,-1,-1,-1,-1,-1,-1,-1,-1,-1,-1,-1,-1,-1],"loss_changes":[2.1430012E5,5.582172E4,6.003176E4,5.8532715E-1,1.725E3,2.4032822E5,3.3859336E3,5.6591797E-1,1.4299707E0,2.8284375E2,3.8954563E0,1.1065859E3,3.3971875E2,2.9290708E3,3.9605078E2,0E0,0E0,2.0279408E-1,6.593556E-1,0E0,0E0,7.788639E-1,9.761104E0,2.4267578E0,3.9674493E2,6.788605E1,1.8725E2,8.441504E1,1.1612839E1,4.2292773E2,7.260742E2,1.2029908E0,0E0,4.1111517E-1,0E0,0E0,1.7220415E0,0E0,0E0,8.5253906E-1,5.718765E-1,7.920209E1,0E0,7.081299E0,2.0152261E2,1.43125E1,4.1670312E2,2.2481934E1,0E0,4.9682617E-1,6.484848E1,2.7136035E2,5.8656606E3,1.2055243E3,3.1746094E1,0E0,0E0,0E0,0E0,0E0,0E0,0E0,0E0,0E0,0E0,0E0,0E0,0E0,0E0,0E0,0E0,0E0,0E0,0E0,0E0,0E0,0E0,0E0,0E0,0E0,0E0,0E0,0E0,0E0,0E0,0E0,0E0,0E0,0E0],"parents":[2147483647,0,0,1,1,2,2,3,3,4,4,5,5,6,6,7,7,8,8,9,9,10,10,11,11,12,12,13,13,14,14,17,17,18,18,21,21,22,22,23,23,24,24,25,25,26,26,27,27,28,28,29,29,30,30,31,31,33,33,36,36,39,39,40,40,41,41,43,43,44,44,45,45,46,46,47,47,49,49,50,50,51,51,52,52,53,53,54,54],"right_children":[2,4,6,8,10,12,14,16,18,20,22,24,26,28,30,-1,-1,32,34,-1,-1,36,38,40,42,44,46,48,50,52,54,56,-1,58,-1,-1,60,-1,-1,62,64,66,-1,68,70,72,74,76,-1,78,80,82,84,86,88,-1,-1,-1,-1,-1,-1,-1,-1,-1,-1,-1,-1,-1,-1,-1,-1,-1,-1,-1,-1,-1,-1,-1,-1,-1,-1,-1,-1,-1,-1,-1,-1,-1,-1],"split_conditions":[3.840467E1,2.96E2,8.04E2,6.5535E4,2.2811161E5,3.595E2,7.317709E1,2.1958271E-4,1.924E3,4.2E2,2.3868229E1,3.21E2,3.75E2,1.04585E5,2.72E3,-1.7063121E-1,-0E0,2.37E2,2.208E3,1.1999251E0,-1.5965666E-1,1.417E3,6.798698E3,2.75E2,7.14E2,3.68E2,3.84E2,4.2E2,2.29E2,4E0,1.1113162E3,2E0,-1.6314201E-1,2.0176615E3,-9.7297296E-2,-1.6920584E-1,5.683351E6,6.268657E-1,-1.3953489E-1,6.5535E4,5E1,3.22E2,-1.6924912E-1,2E0,3.69E2,9.8E1,8.02E2,3.2347866E1,-1.3818182E-1,6.484922E4,4.12E2,1.02E3,4.42E2,4.33E2,3.0170918E3,8.8421054E-2,-1.4660634E-1,-0E0,1.9701493E-1,-1.3333334E-1,1.9701493E-1,-1.7119554E-1,-3.3519555E-2,-1.4861996E-1,-3.3519555E-2,1.1385404E0,5.5014443E-1,1.0060077E0,7.182796E-1,-1.5426622E-1,8.330579E-1,1.1912075E0,5.3731345E-2,9.3739367E-1,1.1562052E0,1.196213E0,-8.955224E-2,-1.7074746E-1,-1.263158E-2,9.767442E-1,-1.6503496E-1,-1.1769692E-1,-1.6248576E-1,-1.3296326E-1,1.144186E0,4.596645E-1,-1.3487834E-1,-1.3008498E-1,-1.6667908E-1],"split_indices":[2,10,5,26,14,7,2,16,24,10,11,10,9,0,5,0,0,27,5,0,0,7,1,10,5,7,9,10,10,22,2,15,0,5,0,0,0,0,0,26,0,10,0,0,9,14,5,11,0,26,7,5,7,9,2,0,0,0,0,0,0,0,0,0,0,0,0,0,0,0,0,0,0,0,0,0,0,0,0,0,0,0,0,0,0,0,0,0,0],"split_type":[0,0,0,0,0,0,0,0,0,0,0,0,0,0,0,0,0,0,0,0,0,0,0,0,0,0,0,0,0,0,0,0,0,0,0,0,0,0,0,0,0,0,0,0,0,0,0,0,0,0,0,0,0,0,0,0,0,0,0,0,0,0,0,0,0,0,0,0,0,0,0,0,0,0,0,0,0,0,0,0,0,0,0,0,0,0,0,0,0],"sum_hessian":[2.8E5,1.936375E4,2.6063625E5,3.2574062E3,1.6106344E4,6.3176312E4,1.9745994E5,3.2256875E3,3.171875E1,1.6020156E4,8.61875E1,4.6535344E4,1.6640969E4,6.0396875E2,1.9685597E5,3.2239375E3,1.75E0,2.75625E1,4.15625E0,1.6006594E4,1.35625E1,8.071875E1,5.46875E0,4.624047E4,2.94875E2,1.6734375E2,1.6473625E4,3.21125E2,2.8284375E2,5.5368906E4,1.4148706E5,7.875E0,1.96875E1,2.84375E0,1.3125E0,7.6125E1,4.59375E0,1.09375E0,4.375E0,4.5795312E4,4.4515625E2,2.1721875E2,7.765625E1,8.1375E1,8.596875E1,1.0304219E4,6.1694062E3,3.1696875E2,4.15625E0,2.5265625E2,3.01875E1,4.9555188E4,5.8137188E3,1.4391562E3,1.400479E5,1.96875E0,5.90625E0,1.75E0,1.09375E0,3.5E0,1.09375E0,4.579072E4,4.59375E0,4.405625E2,4.59375E0,2.340625E1,1.938125E2,5.621875E1,2.515625E1,2.646875E1,5.95E1,1.0303125E4,1.09375E0,9.5746875E2,5.2119375E3,3.15875E2,1.09375E0,2.506875E2,1.96875E0,4.375E0,2.58125E1,2.1592812E4,2.7962375E4,5.4707188E3,3.43E2,4.423125E2,9.9684375E2,2.1872812E3,1.3786062E5],"tree_param":{"num_deleted":"0","num_feature":"32","num_nodes":"89","size_leaf_vector":"1"}},{"base_weights":[-1.1897608E-2,1.3763186E0,-5.497931E-1,9.237246E-1,1.3881359E0,-5.526997E-1,4.2337644E-1,1.3441676E0,-3.6164412E-1,1.3888005E0,2.6033494E-1,-5.5300534E-1,1.4062334E0,9.784372E-1,4.1661116E-1,-4.785303E-1,4.600817E-1,1.2899175E0,1.3899128E0,-3.4950775E-1,4.6095702E-1,-4.8758164E-1,-5.5320424E-1,1.3741961E-1,4.2977023E-1,3.8400772E-1,-1.6509536E-1,-5.213063E-1,1.2703139E-1,1.3398831E0,-2.1977665E-1,1.3727725E0,1.391993E0,-5.048566E-1,4.443945E-1,-1.6210006E-1,1.119496E0,-1.6533892E-1,-5.557935E-1,-1.685254E-1,-1.4954333E-1,4.068367E-1,-9.663499E-2,4.350362E-1,3.2827297E-1,4.1681477E-1,3.653284E-1,4.4911224E-1,4.1748872E-1,-1.609883E-1,-1.5246159E-2,4.9069166E-1,1.465083E-1,-1.6674154E-1,4.9398433E-2],"categories":[],"categories_nodes":[],"categories_segments":[],"categories_sizes":[],"default_left":[0,0,0,0,0,0,0,0,0,0,0,0,0,0,0,0,0,0,0,0,0,0,0,0,0,0,0,0,0,0,0,0,0,0,0,0,0,0,0,0,0,0,0,0,0,0,0,0,0,0,0,0,0,0,0],"id":8,"left_children":[1,3,5,7,9,11,-1,13,15,17,19,21,23,25,-1,27,-1,29,31,33,-1,35,37,-1,-1,-1,-1,39,41,43,-1,45,47,49,-1,-1,51,-1,53,-1,-1,-1,-1,-1,-1,-1,-1,-1,-1,-1,-1,-1,-1,-1,-1],"loss_changes":[2.0065525E5,4.0009375E2,1.104707E3,1.0340637E3,5.44375E1,1.16546875E2,0E0,2.2118652E1,1.0533571E2,6.25E0,3.5016575E1,2.25E0,1.04019165E-1,7.440372E1,0E0,1.1606636E1,0E0,8.454175E1,6.71875E-1,9.505638E0,0E0,5.1009354E1,7.265625E-1,0E0,0E0,0E0,0E0,1.0434723E-1,1.7107584E1,2.0273438E1,0E0,1.8632812E1,3.671875E-1,3.9292812E-1,0E0,0E0,5.462721E0,0E0,8.066406E-1,0E0,0E0,0E0,0E0,0E0,0E0,0E0,0E0,0E0,0E0,0E0,0E0,0E0,0E0,0E0,0E0],"parents":[2147483647,0,0,1,1,2,2,3,3,4,4,5,5,7,7,8,8,9,9,10,10,11,11,12,12,13,13,15,15,17,17,18,18,19,19,21,21,22,22,27,27,28,28,29,29,31,31,32,32,33,33,36,36,38,38],"right_children":[2,4,6,8,10,12,-1,14,16,18,20,22,24,26,-1,28,-1,30,32,34,-1,36,38,-1,-1,-1,-1,40,42,44,-1,46,48,50,-1,-1,52,-1,54,-1,-1,-1,-1,-1,-1,-1,-1,-1,-1,-1,-1,-1,-1,-1,-1],"split_conditions":[8E1,5.7735026E-1,2.012522E-3,1.0065877E0,6.5535E4,3.2907504E2,4.2337644E-1,2.45E2,3.1246195E-8,6.5E1,1.12E3,2.11E2,1.22669816E-1,2.7335026E0,4.1661116E-1,4.28E1,4.600817E-1,9.476047E-9,1.770597E-1,1.1346514E8,4.6095702E-1,1.4142135E0,9.62E2,1.3741961E-1,4.2977023E-1,3.8400772E-1,-1.6509536E-1,3.157261E1,5E1,2.7335026E0,-2.1977665E-1,3.6007668E4,3.2E1,1.7054709E4,4.443945E-1,-1.6210006E-1,4.2E1,-1.6533892E-1,1.9248964E0,-1.685254E-1,-1.4954333E-1,4.068367E-1,-9.663499E-2,4.350362E-1,3.2827297E-1,4.1681477E-1,3.653284E-1,4.4911224E-1,4.1748872E-1,-1.609883E-1,-1.5246159E-2,4.9069166E-1,1.465083E-1,-1.6674154E-1,4.9398433E-2],"split_indices":[10,13,4,10,26,15,0,26,18,12,9,9,2,27,0,7,0,17,28,0,0,13,9,0,0,0,0,7,7,27,0,12,26,1,0,0,0,0,11,0,0,0,0,0,0,0,0,0,0,0,0,0,0,0,0],"split_type":[0,0,0,0,0,0,0,0,0,0,0,0,0,0,0,0,0,0,0,0,0,0,0,0,0,0,0,0,0,0,0,0,0,0,0,0,0,0,0,0,0,0,0,0,0,0,0,0,0,0,0,0,0,0,0],"sum_hessian":[2.687152E5,7.5042305E4,1.9367289E5,1.9115302E3,7.313077E4,1.9338698E5,2.859101E2,1.4403479E3,4.711823E2,7.308748E4,4.3302567E1,1.9335753E5,2.9447006E1,1.5884926E2,1.2814985E3,4.4451514E2,2.6667175E1,8.2587024E2,7.22616E4,2.9792147E1,1.351042E1,5.935579E2,1.9276397E5,1.2928194E0,2.8154186E1,1.3281131E2,2.6037945E1,4.1531686E2,2.9198252E1,8.062885E2,1.958173E1,7.8922974E3,6.4369305E4,2.8129545E1,1.6626005E0,5.753364E2,1.8221468E1,1.07138875E5,8.56251E4,1.4132535E2,2.7399155E2,7.2739124E0,2.192434E1,5.531459E2,2.5314264E2,7.1212617E3,7.7103564E2,2.0811612E2,6.416119E4,2.6119907E1,2.0096378E0,9.148353E0,9.073116E0,8.562395E4,1.1515727E0],"tree_param":{"num_deleted":"0","num_feature":"32","num_nodes":"55","size_leaf_vector":"1"}},{"base_weights":[2.7650448E-2,-4.4131032E-1,6.280344E-1,-4.8228484E-1,-1.4609647E-1,8.740308E-1,2.6622066E-1,-2.1742229E-1,-5.030806E-1,1.4778554E-1,-1.7970622E-1,1.1150068E0,8.372329E-1,6.7794253E-3,1.0041484E0,6.8735933E-1,-5.45931E-1,-4.6239135E-1,-5.420313E-1,9.496496E-1,1.1091091E-1,-3.221122E-1,-4.6952315E-2,5.7802284E-1,1.275026E0,-3.0220509E-2,8.412077E-1,6.7922384E-1,-4.2563133E-2,1.1018903E0,6.77961E-1,-5.342154E-1,1.1137336E0,-5.468925E-1,6.278505E-1,-4.9493578E-1,-2.9957688E-1,-5.4721457E-1,-4.7161952E-1,1.1583792E0,3.2594782E-1,-8.8668145E-2,2.7671778E-1,8.40414E-2,-3.386727E-1,2.7962234E-2,-2.742433E-1,3.8218316E-1,3.529536E-1,9.872863E-1,1.2781974E0,3.1879333E-1,8.324231E-1,-8.308942E-2,1.1443919E0,-1.8060848E-1,-5.031018E-3,5.769872E-1,1.17587E0,1.2414545E0,3.8449934E-1,-1.6069812E-1,1.4786831E-2,2.3309256E-1,4.3147847E-1,-1.6414778E-1,-1.10817626E-1,4.5283386E-1,-1.22407824E-1,-1.6301149E-1,-1.3800384E-1,-1.507976E-1,-5.045621E-2,-1.5369505E-1,-1.6506071E-1,-1.5690997E-1,1.7766967E-1,2.9940176E-1,6.2385666E-1,1.4681926E-1,-2.6431126E-3,2.7515495E-3,-1.3896382E-1,7.441309E-2,4.5247367E-1,-4.8995674E-2,-1.0667549E-1,-1.5319495E-2,2.3908806E-1,-1.3359134E-1,-4.2060265E-4,1.4413461E-1,-1.5825586E-1,4.0462968E-1,2.2551697E-1,4.202259E-1,3.8173273E-1,2.2562064E-1,2.5090507E-1,2.8137356E-1,-6.9333576E-2,3.5182184E-1,2.547484E-1,8.54582E-2,-8.099352E-2,6.552484E-2,3.1881785E-1,2.1987905E-1,3.567325E-1,3.865786E-1,1.18242845E-1,-3.084624E-2,1.6663186E-1],"categories":[],"categories_nodes":[],"categories_segments":[],"categories_sizes":[],"default_left":[0,0,0,0,0,0,0,0,0,0,0,0,0,0,0,0,0,0,0,0,0,0,0,0,0,0,0,0,0,0,0,0,0,0,0,0,0,0,0,0,0,0,0,0,0,0,0,0,0,0,0,0,0,0,0,0,0,0,0,0,0,0,0,0,0,0,0,0,0,0,0,0,0,0,0,0,0,0,0,0,0,0,0,0,0,0,0,0,0,0,0,0,0,0,0,0,0,0,0,0,0,0,0,0,0,0,0,0,0,0,0,0,0],"id":9,"left_children":[1,3,5,7,9,11,13,15,17,19,21,23,25,27,29,31,33,35,37,39,41,43,45,47,49,-1,51,53,55,57,59,61,63,65,67,69,71,73,75,77,79,81,83,-1,85,87,89,-1,91,93,95,-1,97,99,101,103,-1,105,107,109,111,-1,-1,-1,-1,-1,-1,-1,-1,-1,-1,-1,-1,-1,-1,-1,-1,-1,-1,-1,-1,-1,-1,-1,-1,-1,-1,-1,-1,-1,-1,-1,-1,-1,-1,-1,-1,-1,-1,-1,-1,-1,-1,-1,-1,-1,-1,-1,-1,-1,-1,-1,-1],"loss_changes":[7.425595E4,1.7910664E3,1.0294105E4,7.160742E2,1.7829779E2,6.0958203E2,8.962127E3,2.814406E3,1.9082031E2,5.46801E1,3.0618347E2,7.827295E2,2.2278125E2,1.1492598E3,3.8748438E2,1.3143278E3,8.183105E0,3.1231934E2,2.2220703E1,1.0209923E1,5.8679623E1,7.802936E1,1.4275885E2,3.2770612E2,5.147461E0,0E0,1.1482031E2,8.3974084E2,1.148954E2,3.6309473E2,4.6422095E2,5.7722473E-1,2.0325269E2,1.2646484E-1,6.2331758E0,8.288086E1,2.6210907E2,5.6992188E0,2.3168799E2,6.8683777E0,1.1962442E0,2.9507341E1,3.3823418E1,0E0,2.249701E1,3.8328488E2,9.7000336E1,0E0,1.7812148E2,5.880356E0,3.1142578E0,0E0,1.7425781E1,1.359708E2,1.13116455E1,2.1140144E2,0E0,2.01663E2,4.7268555E1,3.7912476E1,1.5410672E2,0E0,0E0,0E0,0E0,0E0,0E0,0E0,0E0,0E0,0E0,0E0,0E0,0E0,0E0,0E0,0E0,0E0,0E0,0E0,0E0,0E0,0E0,0E0,0E0,0E0,0E0,0E0,0E0,0E0,0E0,0E0,0E0,0E0,0E0,0E0,0E0,0E0,0E0,0E0,0E0,0E0,0E0,0E0,0E0,0E0,0E0,0E0,0E0,0E0,0E0,0E0,0E0],"parents":[2147483647,0,0,1,1,2,2,3,3,4,4,5,5,6,6,7,7,8,8,9,9,10,10,11,11,12,12,13,13,14,14,15,15,16,16,17,17,18,18,19,19,20,20,21,21,22,22,23,23,24,24,26,26,27,27,28,28,29,29,30,30,31,31,32,32,33,33,34,34,35,35,36,36,37,37,38,38,39,39,40,40,41,41,42,42,44,44,45,45,46,46,48,48,49,49,50,50,52,52,53,53,54,54,55,55,57,57,58,58,59,59,60,60],"right_children":[2,4,6,8,10,12,14,16,18,20,22,24,26,28,30,32,34,36,38,40,42,44,46,48,50,-1,52,54,56,58,60,62,64,66,68,70,72,74,76,78,80,82,84,-1,86,88,90,-1,92,94,96,-1,98,100,102,104,-1,106,108,110,112,-1,-1,-1,-1,-1,-1,-1,-1,-1,-1,-1,-1,-1,-1,-1,-1,-1,-1,-1,-1,-1,-1,-1,-1,-1,-1,-1,-1,-1,-1,-1,-1,-1,-1,-1,-1,-1,-1,-1,-1,-1,-1,-1,-1,-1,-1,-1,-1,-1,-1,-1,-1],"split_conditions":[1.416E3,5.68E2,2E0,4.22E2,7.14E8,2.901275E3,6E0,5.7735026E-1,4.8E1,5.7E2,1.472E9,2.896E9,2.928E9,2.901275E3,5E1,1.0342113E1,1.26E2,2E0,6.424E4,4.5E1,6.62E2,5.7E2,2.738E3,1.417E3,2.896E3,-3.0220509E-2,1E0,2.896E3,1.472E9,4.3E1,2.1910742E4,9.85356E5,2E0,6.5535E4,5.683351E6,5.01E8,2.47E2,5.7735026E-1,1E0,3E0,4.9E1,4.8E1,2.0674506E2,8.40414E-2,1.1E9,2.736E3,1.391E3,3.8218316E-1,1.441E3,2.836E3,1E0,3.1879333E-1,2.944E9,1.417E3,3E0,7.5E8,-5.031018E-3,1.3333333E5,2.896E3,2.66E2,4.802405E7,-1.6069812E-1,1.4786831E-2,2.3309256E-1,4.3147847E-1,-1.6414778E-1,-1.10817626E-1,4.5283386E-1,-1.22407824E-1,-1.6301149E-1,-1.3800384E-1,-1.507976E-1,-5.045621E-2,-1.5369505E-1,-1.6506071E-1,-1.5690997E-1,1.7766967E-1,2.9940176E-1,6.2385666E-1,1.4681926E-1,-2.6431126E-3,2.7515495E-3,-1.3896382E-1,7.441309E-2,4.5247367E-1,-4.8995674E-2,-1.0667549E-1,-1.5319495E-2,2.3908806E-1,-1.3359134E-1,-4.2060265E-4,1.4413461E-1,-1.5825586E-1,4.0462968E-1,2.2551697E-1,4.202259E-1,3.8173273E-1,2.2562064E-1,2.5090507E-1,2.8137356E-1,-6.9333576E-2,3.5182184E-1,2.547484E-1,8.54582E-2,-8.099352E-2,6.552484E-2,3.1881785E-1,2.1987905E-1,3.567325E-1,3.865786E-1,1.18242845E-1,-3.084624E-2,1.6663186E-1],"split_indices":[10,10,0,5,1,5,15,13,0,7,1,1,1,5,0,10,3,15,5,0,9,7,24,7,5,0,0,5,1,12,2,0,0,26,0,1,10,13,15,0,0,0,15,0,1,5,9,0,9,5,0,0,1,7,0,1,0,2,5,12,1,0,0,0,0,0,0,0,0,0,0,0,0,0,0,0,0,0,0,0,0,0,0,0,0,0,0,0,0,0,0,0,0,0,0,0,0,0,0,0,0,0,0,0,0,0,0,0,0,0,0,0,0],"split_type":[0,0,0,0,0,0,0,0,0,0,0,0,0,0,0,0,0,0,0,0,0,0,0,0,0,0,0,0,0,0,0,0,0,0,0,0,0,0,0,0,0,0,0,0,0,0,0,0,0,0,0,0,0,0,0,0,0,0,0,0,0,0,0,0,0,0,0,0,0,0,0,0,0,0,0,0,0,0,0,0,0,0,0,0,0,0,0,0,0,0,0,0,0,0,0,0,0,0,0,0,0,0,0,0,0,0,0,0,0,0,0,0,0],"sum_hessian":[2.6373175E5,1.4807244E5,1.1565933E5,1.3002485E5,1.8047574E4,6.884817E4,4.6811152E4,9.4665625E3,1.2055829E5,1.8518344E3,1.619574E4,9.116747E3,5.9731426E4,3.463512E4,1.2176034E4,2.5212957E3,6.945267E3,5.8969555E4,6.158874E4,8.032649E1,1.7715078E3,7.813124E3,8.382616E3,2.094097E3,7.02265E3,2.5195282E2,5.9479473E4,2.3668418E3,3.226828E4,9.366875E3,2.8091584E3,6.522701E2,1.8690255E3,6.940116E3,5.1510444E0,4.9144246E4,9.825309E3,5.735952E4,4.2292173E3,5.954256E1,2.0783932E1,8.040959E2,9.67412E2,2.0866711E2,7.604457E3,6.3052866E3,2.07733E3,5.1061108E2,1.5834857E3,7.996499E1,6.942685E3,2.2649895E3,5.7214484E4,8.97253E2,1.4695887E3,5.0790483E3,2.718923E4,1.1581711E3,8.208704E3,9.608815E2,1.848277E3,6.5074054E2,1.5294913E0,9.188946E2,9.501309E2,6.927624E3,1.2492294E1,2.5357742E0,2.6152701E0,2.0582766E4,2.8561482E4,3.8585408E3,5.9667676E3,4.537156E3,5.2822363E4,4.0347354E3,1.9448181E2,5.2487755E1,7.0548058E0,1.3654846E1,7.129085E0,6.3832556E2,1.6577032E2,9.46574E2,2.0838043E1,6.698465E2,6.9346104E3,5.7185454E3,5.867412E2,1.2764266E3,8.009033E2,1.3835919E3,1.9989381E2,2.9685667E1,5.0279324E1,3.005232E2,6.642162E3,2.6748774E3,5.4539605E4,1.12935036E2,7.8431793E2,1.3381317E3,1.3145692E2,8.177481E2,4.2613003E3,6.6714E2,4.9103116E2,2.3985175E2,7.9688525E3,9.097463E2,5.1135197E1,4.8007294E2,1.3682041E3],"tree_param":{"num_deleted":"0","num_feature":"32","num_nodes":"113","size_leaf_vector":"1"}},{"base_weights":[3.104538E-2,-5.1820546E-1,7.100162E-1,-5.488888E-1,-1.2837064E-1,4.797599E-1,9.1205645E-1,-5.499287E-1,-4.7309425E-1,-5.0346605E-2,-2.657132E-1,4.075578E-1,8.093058E-1,2.037942E-1,9.142134E-1,-5.5057317E-1,-5.409927E-1,-8.0605686E-2,-1.6295993E-1,-1.7002562E-1,9.636587E-1,-3.736871E-1,1.9727096E-2,-2.2216089E-1,4.6524516E-1,1.4137328E0,7.0556414E-1,2.947196E-1,-3.0868514E-2,7.6687247E-1,9.185867E-1,-5.3279823E-1,-1.6526195E-1,-4.2886022E-1,-5.461879E-1,5.250066E-1,-5.064622E-1,-2.1986362E-1,2.463708E-1,4.7181284E-1,3.068048E-1,-3.8286176E-1,3.104419E-1,4.626028E-1,-3.2734114E-1,2.842764E-2,-2.536113E-1,5.051752E-1,1.09468825E-1,2.2228253E0,6.3807106E-1,2.4837643E-1,9.129966E-1,2.047979E-1,2.312118E-1,2.6024446E-1,2.7633524E-1,-1.6106892E-1,2.3799016E-1,-1.4700085E-1,-1.10282674E-1,-1.6437395E-1,-1.4278999E-1,2.9140583E-1,-1.380183E-2,1.22778796E-1,-1.6445218E-1,-2.013164E-2,-1.1771152E-1,3.4225768E-1,3.9446037E-2,2.238768E-1,1.0266616E-1,-1.668604E-1,-1.10811286E-1,3.4609777E-1,3.1581208E-2,2.5748667E-1,1.55345285E-2,-7.119981E-2,-1.6908626E-1,5.3790186E-2,3.5230292E-3,-5.1702544E-2,-7.6488644E-2,3.0331588E-1,1.442576E-1,1.9637343E-2,1.9801588E-1,7.012881E-1,5.0412345E-1,2.9088527E-1,1.1233044E-1,-6.2487584E-2,9.225029E-2,2.9150292E-1,9.6534364E-2],"categories":[],"categories_nodes":[],"categories_segments":[],"categories_sizes":[],"default_left":[0,0,0,0,0,0,0,0,0,0,0,0,0,0,0,0,0,0,0,0,0,0,0,0,0,0,0,0,0,0,0,0,0,0,0,0,0,0,0,0,0,0,0,0,0,0,0,0,0,0,0,0,0,0,0,0,0,0,0,0,0,0,0,0,0,0,0,0,0,0,0,0,0,0,0,0,0,0,0,0,0,0,0,0,0,0,0,0,0,0,0,0,0,0,0,0,0],"id":10,"left_children":[1,3,5,7,9,11,13,15,17,19,21,23,25,27,29,31,33,35,-1,37,39,41,43,45,47,49,51,-1,-1,53,55,57,-1,59,61,63,65,67,69,71,-1,73,75,77,79,81,83,85,87,89,91,93,95,-1,-1,-1,-1,-1,-1,-1,-1,-1,-1,-1,-1,-1,-1,-1,-1,-1,-1,-1,-1,-1,-1,-1,-1,-1,-1,-1,-1,-1,-1,-1,-1,-1,-1,-1,-1,-1,-1,-1,-1,-1,-1,-1,-1],"loss_changes":[9.83618E4,1.7439922E3,5.4867266E3,1.0394531E1,1.1400737E2,1.3113779E3,9.579297E1,4.6875E-1,5.0490143E1,8.2375995E2,1.1880502E2,1.6428843E3,6.201865E2,4.5956333E1,3.9652344E1,3.7109375E-1,5.024414E0,7.235043E1,0E0,1.26043106E2,2.032074E1,1.7672852E1,1.6290445E2,2.9921951E1,5.884717E2,9.0872925E2,8.0182764E2,0E0,0E0,5.871582E-2,7.0664062E0,1.180249E1,0E0,1.3341904E0,7.836914E-1,2.9580778E1,6.5120277E0,1.4287085E2,6.6587616E1,2.5414085E0,0E0,6.249115E0,6.376893E0,7.564598E1,1.2503582E1,1.065605E0,3.263092E-1,4.5769336E2,1.0128576E2,4.024756E1,6.447781E1,7.137076E1,2.0150488E2,0E0,0E0,0E0,0E0,0E0,0E0,0E0,0E0,0E0,0E0,0E0,0E0,0E0,0E0,0E0,0E0,0E0,0E0,0E0,0E0,0E0,0E0,0E0,0E0,0E0,0E0,0E0,0E0,0E0,0E0,0E0,0E0,0E0,0E0,0E0,0E0,0E0,0E0,0E0,0E0,0E0,0E0,0E0,0E0],"parents":[2147483647,0,0,1,1,2,2,3,3,4,4,5,5,6,6,7,7,8,8,9,9,10,10,11,11,12,12,13,13,14,14,15,15,16,16,17,17,19,19,20,20,21,21,22,22,23,23,24,24,25,25,26,26,29,29,30,30,31,31,33,33,34,34,35,35,36,36,37,37,38,38,39,39,41,41,42,42,43,43,44,44,45,45,46,46,47,47,48,48,49,49,50,50,51,51,52,52],"right_children":[2,4,6,8,10,12,14,16,18,20,22,24,26,28,30,32,34,36,-1,38,40,42,44,46,48,50,52,-1,-1,54,56,58,-1,60,62,64,66,68,70,72,-1,74,76,78,80,82,84,86,88,90,92,94,96,-1,-1,-1,-1,-1,-1,-1,-1,-1,-1,-1,-1,-1,-1,-1,-1,-1,-1,-1,-1,-1,-1,-1,-1,-1,-1,-1,-1,-1,-1,-1,-1,-1,-1,-1,-1,-1,-1,-1,-1,-1,-1,-1,-1],"split_conditions":[1.424E3,9.4E2,2.928E9,7.36E2,2.738E3,5E0,2.901275E3,5.16E2,7.57E2,2.736E9,1.408E3,9.9E8,4.3E1,1.441E3,1E0,3.8290506E2,1.046E3,1.488E9,-1.6295993E-1,2.736E3,1E0,4.9E1,2.824E3,9.58E8,2.854E9,1.3333333E5,4.8E1,2.947196E-1,-3.0868514E-2,2.944E3,2.944E9,1.08E2,-1.6526195E-1,1.038E9,1.438E3,2E0,1E0,1.279E3,4.58E8,2.3375237E3,3.068048E-1,1.371E3,3.0303031E4,2E0,1.417E3,1.429E3,9.76E8,2.856E3,2.901275E3,4.2E1,5.4444447E0,2.901275E3,1.4500502E2,2.047979E-1,2.312118E-1,2.6024446E-1,2.7633524E-1,-1.6106892E-1,2.3799016E-1,-1.4700085E-1,-1.10282674E-1,-1.6437395E-1,-1.4278999E-1,2.9140583E-1,-1.380183E-2,1.22778796E-1,-1.6445218E-1,-2.013164E-2,-1.1771152E-1,3.4225768E-1,3.9446037E-2,2.238768E-1,1.0266616E-1,-1.668604E-1,-1.10811286E-1,3.4609777E-1,3.1581208E-2,2.5748667E-1,1.55345285E-2,-7.119981E-2,-1.6908626E-1,5.3790186E-2,3.5230292E-3,-5.1702544E-2,-7.6488644E-2,3.0331588E-1,1.442576E-1,1.9637343E-2,1.9801588E-1,7.012881E-1,5.0412345E-1,2.9088527E-1,1.1233044E-1,-6.2487584E-2,9.225029E-2,2.9150292E-1,9.6534364E-2],"split_indices":[10,10,1,10,24,0,5,10,9,1,10,1,12,9,0,1,5,1,0,5,0,15,24,1,1,2,0,0,0,5,1,3,0,1,24,0,0,10,1,24,0,10,2,0,7,10,1,24,5,0,12,5,12,0,0,0,0,0,0,0,0,0,0,0,0,0,0,0,0,0,0,0,0,0,0,0,0,0,0,0,0,0,0,0,0,0,0,0,0,0,0,0,0,0,0,0,0],"split_type":[0,0,0,0,0,0,0,0,0,0,0,0,0,0,0,0,0,0,0,0,0,0,0,0,0,0,0,0,0,0,0,0,0,0,0,0,0,0,0,0,0,0,0,0,0,0,0,0,0,0,0,0,0,0,0,0,0,0,0,0,0,0,0,0,0,0,0,0,0,0,0,0,0,0,0,0,0,0,0,0,0,0,0,0,0,0,0,0,0,0,0,0,0,0,0,0,0],"sum_hessian":[2.6375538E5,1.4580622E5,1.1794916E5,1.3516702E5,1.0639211E4,5.512687E4,6.2822285E4,1.3333145E5,1.8355538E3,6.785659E3,3.853552E3,4.522131E4,9.90556E3,1.9103201E2,6.263125E4,1.24305766E5,9.025698E3,2.785015E2,1.5570522E3,6.0700654E3,7.1559344E2,2.795707E3,1.057845E3,3.7947493E3,4.1426562E4,1.4492443E3,8.456315E3,5.3360447E1,1.3767157E2,1.810463E3,6.082079E4,2.0923965E3,1.2221337E5,4.033527E2,8.622345E3,1.1488718E2,1.6361432E2,5.4216294E3,6.4843634E2,7.76373E1,6.379561E2,2.7591453E3,3.6561806E1,4.6462643E2,5.932185E2,4.231666E2,3.3715825E3,3.7245902E4,4.180658E3,7.084229E2,7.4082135E2,2.6399597E3,5.816356E3,8.662245E1,1.7238405E3,2.8860002E3,5.793479E4,2.0865435E3,5.852994E0,1.9835242E2,2.0500029E2,8.408946E3,2.1339886E2,6.408918E1,5.0797997E1,6.7441316E0,1.568702E2,2.87615E3,2.5454792E3,7.2786835E1,5.7564954E2,2.3375504E1,5.42618E1,1.963303E2,2.562815E3,6.2504907E0,3.0311316E1,2.3611801E2,2.2850842E2,4.310273E2,1.6219118E2,4.1165554E1,3.8200104E2,5.72273E1,3.3143552E3,1.7063612E3,3.5539543E4,3.8722485E3,3.0840982E2,5.8194476E2,1.2647809E2,3.2696075E2,4.138606E2,3.0232516E2,2.3376345E3,5.2906055E3,5.2575037E2],"tree_param":{"num_deleted":"0","num_feature":"32","num_nodes":"97","size_leaf_vector":"1"}},{"base_weights":[-9.440656E-3,4.4689646E-1,-4.8354533E-1,-5.327286E-1,1.2848934E0,-2.1643731E-1,-5.124796E-1,-5.507407E-1,-2.8923446E-1,1.3051354E0,-4.637297E-1,-5.3975993E-1,5.7504153E-1,-5.4890305E-1,-4.9270618E-1,-1.652462E-1,-3.975708E-1,1.6151419E0,-3.792821E-1,1.3267437E0,1.2142437E0,1.3144091E0,-5.472401E-1,-1.6511016E-1,-1.9139062E-1,3.4789497E-1,9.349764E-1,-4.5170075E-1,-1.6483112E-1,-2.0136008E-1,-4.9549183E-1,-2.4477182E-1,-1.5663864E-1,4.8585135E-1,1.529736E-1,-1.10130176E-1,-4.1845474E-1,1.3426379E0,1.2117914E0,1.1491588E0,1.3460665E0,2.1010295E-1,4.2688474E-1,-1.648978E-1,-3.0669683E-1,5.122635E-1,-3.84515E-1,9.3708336E-1,-1.7282085E-1,1.170803E0,-1.6595265E-1,1.1660591E0,-1.6440502E-1,-1.6607586E-1,3.2885182E-1,-4.7368369E-1,-5.0053084E-1,-1.4920472E-1,1.259918E-2,4.009043E-3,-1.257697E-1,3.9177355E-1,4.2119431E-1,-2.1174185E-1,3.7223727E-1,3.901486E-1,3.3153883E-1,4.064639E-1,-1.3359953E-1,1.4578478E-1,-9.2371225E-2,-1.4712256E-1,1.2306855E-1,4.2147028E-1,8.104589E-3,-1.5364595E-1,5.2423004E-2,2.2022766E-1,3.797421E-1,-1.4993268E-3,-1.0313748E-1,3.7463224E-1,1.4379098E-1,4.5721054E-1,5.4291535E-2,-1.0611835E-1,1.0019485E-1,-1.4762451E-1,-1.07809804E-1,-1.4838243E-1,-1.5244061E-1],"categories":[],"categories_nodes":[],"categories_segments":[],"categories_sizes":[],"default_left":[0,0,0,0,0,0,0,0,0,0,0,0,0,0,0,0,0,0,0,0,0,0,0,0,0,0,0,0,0,0,0,0,0,0,0,0,0,0,0,0,0,0,0,0,0,0,0,0,0,0,0,0,0,0,0,0,0,0,0,0,0,0,0,0,0,0,0,0,0,0,0,0,0,0,0,0,0,0,0,0,0,0,0,0,0,0,0,0,0,0,0],"id":11,"left_children":[1,3,5,7,9,11,13,15,17,19,21,23,25,27,29,-1,31,33,35,37,39,41,43,-1,45,47,49,51,-1,53,55,57,-1,-1,-1,-1,59,61,63,65,67,69,-1,-1,71,73,75,77,79,81,-1,83,-1,-1,85,87,89,-1,-1,-1,-1,-1,-1,-1,-1,-1,-1,-1,-1,-1,-1,-1,-1,-1,-1,-1,-1,-1,-1,-1,-1,-1,-1,-1,-1,-1,-1,-1,-1,-1,-1],"loss_changes":[5.7914914E4,1.1197483E5,1.01456055E3,2.756504E2,2.6027031E3,3.2844314E3,8.5041016E1,4.9804688E-1,7.437636E2,1.4111719E2,1.25750656E2,3.356543E1,3.0402173E2,1.9150391E0,6.2220703E1,0E0,5.2210474E-1,1.1856079E-1,1.8213501E0,1.0563281E2,1.1831445E2,4.2635193E0,2.998352E-1,0E0,3.6993713E1,7.008462E2,5.058994E2,3.6992245E1,0E0,1.3630905E2,8.121094E0,1.2679952E0,0E0,0E0,0E0,0E0,3.3283997E-1,1.1433594E2,3.9798926E2,6.0929688E1,7.341504E1,8.040229E-1,0E0,0E0,1.5547625E0,2.5406063E1,1.5296585E1,7.057861E1,3.4808918E1,6.642395E1,0E0,4.4599743E0,0E0,0E0,1.1393108E0,2.9886719E1,2.53125E0,0E0,0E0,0E0,0E0,0E0,0E0,0E0,0E0,0E0,0E0,0E0,0E0,0E0,0E0,0E0,0E0,0E0,0E0,0E0,0E0,0E0,0E0,0E0,0E0,0E0,0E0,0E0,0E0,0E0,0E0,0E0,0E0,0E0,0E0],"parents":[2147483647,0,0,1,1,2,2,3,3,4,4,5,5,6,6,7,7,8,8,9,9,10,10,11,11,12,12,13,13,14,14,16,16,17,17,18,18,19,19,20,20,21,21,22,22,24,24,25,25,26,26,27,27,29,29,30,30,31,31,36,36,37,37,38,38,39,39,40,40,41,41,44,44,45,45,46,46,47,47,48,48,49,49,51,51,54,54,55,55,56,56],"right_children":[2,4,6,8,10,12,14,16,18,20,22,24,26,28,30,-1,32,34,36,38,40,42,44,-1,46,48,50,52,-1,54,56,58,-1,-1,-1,-1,60,62,64,66,68,70,-1,-1,72,74,76,78,80,82,-1,84,-1,-1,86,88,90,-1,-1,-1,-1,-1,-1,-1,-1,-1,-1,-1,-1,-1,-1,-1,-1,-1,-1,-1,-1,-1,-1,-1,-1,-1,-1,-1,-1,-1,-1,-1,-1,-1,-1],"split_conditions":[2.088E3,4.02E2,2.64E3,4E2,2.0661798E0,8.46E8,5.5E8,6.5535E4,4.01E2,2E0,6.798698E3,4.42E2,1.279E3,6.798698E3,2.694E3,-1.652462E-1,2E0,5.1E1,2E0,1.472E9,4.7E1,9.85356E5,4.55E2,-1.6511016E-1,1.196E3,1.196E3,2.618E3,4.064124E0,-1.6483112E-1,2.672E3,2.944E3,7.656698E1,-1.5663864E-1,4.8585135E-1,1.529736E-1,-1.10130176E-1,1.0177778E7,1.02E3,1.488E9,8.8E2,9.8E1,4.6339775E5,4.2688474E-1,-1.648978E-1,3.94E2,6E0,1.279E3,2.3375237E3,1.23E3,2.608E3,-1.6595265E-1,5.28E3,-1.6440502E-1,-1.6607586E-1,5.9E2,2.928E9,2E0,-1.4920472E-1,1.259918E-2,4.009043E-3,-1.257697E-1,3.9177355E-1,4.2119431E-1,-2.1174185E-1,3.7223727E-1,3.901486E-1,3.3153883E-1,4.064639E-1,-1.3359953E-1,1.4578478E-1,-9.2371225E-2,-1.4712256E-1,1.2306855E-1,4.2147028E-1,8.104589E-3,-1.5364595E-1,5.2423004E-2,2.2022766E-1,3.797421E-1,-1.4993268E-3,-1.0313748E-1,3.7463224E-1,1.4379098E-1,4.5721054E-1,5.4291535E-2,-1.0611835E-1,1.0019485E-1,-1.4762451E-1,-1.07809804E-1,-1.4838243E-1,-1.5244061E-1],"split_indices":[5,10,5,10,3,1,1,26,7,0,1,10,10,1,5,0,15,15,0,1,0,0,10,0,10,10,24,3,0,24,24,7,0,0,0,0,1,5,1,5,14,0,0,0,0,15,10,24,10,5,0,5,0,0,7,1,0,0,0,0,0,0,0,0,0,0,0,0,0,0,0,0,0,0,0,0,0,0,0,0,0,0,0,0,0,0,0,0,0,0,0],"split_type":[0,0,0,0,0,0,0,0,0,0,0,0,0,0,0,0,0,0,0,0,0,0,0,0,0,0,0,0,0,0,0,0,0,0,0,0,0,0,0,0,0,0,0,0,0,0,0,0,0,0,0,0,0,0,0,0,0,0,0,0,0,0,0,0,0,0,0,0,0,0,0,0,0,0,0,0,0,0,0,0,0,0,0,0,0,0,0,0,0,0,0],"sum_hessian":[2.676869E5,1.3639933E5,1.3128756E5,6.2885754E4,7.3513586E4,1.283246E4,1.1845511E5,5.855312E4,4.332631E3,7.267258E4,8.4100134E2,9.110925E3,3.7215354E3,4.167014E4,7.678497E4,5.8519973E4,3.314753E1,1.9485233E2,4.1377783E3,5.8703062E4,1.39695205E4,3.706469E1,8.0393665E2,8.841147E3,2.697778E2,2.2828489E3,1.4386865E3,2.3230856E2,4.1437832E4,7.279089E2,7.6057055E4,1.6217796E1,1.6929731E1,1.9362274E2,1.2295808E0,3.1641826E3,9.735959E2,5.156292E4,7.140137E3,9.358613E3,4.610907E3,3.5797164E0,3.3484974E1,7.946595E2,9.277185E0,5.7741714E1,2.1203609E2,1.0706321E3,1.2122167E3,1.2420697E3,1.9661684E2,1.24296E1,2.1987897E2,4.3733673E2,2.905721E2,1.429314E4,6.1763918E4,8.232527E0,7.9852705E0,1.7209225E0,9.71875E2,3.2266975E4,1.929595E4,1.0602272E2,7.0341147E3,2.1027117E3,7.2559014E3,4.5885767E3,2.233055E1,2.3762274E0,1.2034891E0,7.6363354E0,1.6408503E0,1.9667387E1,3.8074326E1,1.727044E2,3.9331676E1,6.638988E2,4.067333E2,6.122589E2,5.9995776E2,1.1154857E3,1.26584015E2,8.71537E0,3.7142293E0,1.6610564E0,2.8891107E2,1.2308875E4,1.9842648E3,3.475829E4,2.7005627E4],"tree_param":{"num_deleted":"0","num_feature":"32","num_nodes":"91","size_leaf_vector":"1"}},{"base_weights":[-2.2933064E-2,-4.5401528E-1,1.2569026E0,-4.768782E-1,8.829654E-1,-4.2623687E-1,1.3780801E0,-5.106139E-1,-1.41897E-1,-5.4097533E-1,1.3962541E0,1.012993E0,-4.984747E-1,1.3846674E0,-1.6522117E-1,-4.2171377E-1,-5.544557E-1,-5.45652E-1,1.1834191E0,1.8506965E-1,-5.432076E-1,1.3931836E0,8.069697E-1,-1.6719101E-1,4.1447273E-1,-5.1498204E-1,9.6086526E-1,-1.666126E-1,1.3872888E0,-5.1601493E-1,1.3066127E0,-5.544641E-1,5.0191354E-2,-5.4827946E-1,4.4893432E-1,4.1793686E-1,-1.6660537E-1,-1.6496395E-1,-3.5161448E-1,4.1816413E-1,8.485878E-2,4.4629678E-2,-5.343513E-1,-1.6270153E-1,1.3174224E0,4.171778E-1,1.3130822E0,-7.877464E-2,-1.619589E-1,3.9385167E-1,3.518317E-1,-1.6533348E-1,-1.6673787E-1,-1.1015558E-1,-1.6505857E-1,3.839111E-1,-1.5036342E-1,-1.693687E-1,4.0898544E-1,-1.3864571E-1,-1.6505794E-1,4.305394E-1,1.7060976E-1,3.0423275E-1,4.075403E-1],"categories":[],"categories_nodes":[],"categories_segments":[],"categories_sizes":[],"default_left":[0,0,0,0,0,0,0,0,0,0,0,0,0,0,0,0,0,0,0,0,0,0,0,0,0,0,0,0,0,0,0,0,0,0,0,0,0,0,0,0,0,0,0,0,0,0,0,0,0,0,0,0,0,0,0,0,0,0,0,0,0,0,0,0,0],"id":12,"left_children":[1,3,5,7,9,11,13,15,17,19,21,23,25,27,-1,29,31,33,35,-1,37,39,-1,-1,-1,41,43,-1,45,47,49,51,-1,53,-1,-1,-1,-1,55,-1,-1,57,59,-1,61,-1,63,-1,-1,-1,-1,-1,-1,-1,-1,-1,-1,-1,-1,-1,-1,-1,-1,-1,-1],"loss_changes":[1.4747631E5,6.112504E3,1.3737242E4,2.2216016E3,2.4581445E3,4.7085004E2,7.9903906E2,6.9589453E2,9.626479E3,2.6394653E0,6.069824E0,1.2610312E2,1.04284424E2,3.191797E2,0E0,9.615708E3,8.1640625E-1,7.480664E1,1.532521E3,0E0,9.4488525E-1,1.5151367E0,0E0,0E0,0E0,4.620874E1,2.6730251E1,0E0,1.35078125E1,3.379668E2,1.0043945E0,2.265625E-1,0E0,4.5756836E0,0E0,0E0,0E0,0E0,8.630634E0,0E0,0E0,1.16018906E2,4.456299E0,0E0,2.667183E0,0E0,3.503076E1,0E0,0E0,0E0,0E0,0E0,0E0,0E0,0E0,0E0,0E0,0E0,0E0,0E0,0E0,0E0,0E0,0E0,0E0],"parents":[2147483647,0,0,1,1,2,2,3,3,4,4,5,5,6,6,7,7,8,8,9,9,10,10,11,11,12,12,13,13,15,15,16,16,17,17,18,18,20,20,21,21,25,25,26,26,28,28,29,29,30,30,31,31,33,33,38,38,41,41,42,42,44,44,46,46],"right_children":[2,4,6,8,10,12,14,16,18,20,22,24,26,28,-1,30,32,34,36,-1,38,40,-1,-1,-1,42,44,-1,46,48,50,52,-1,54,-1,-1,-1,-1,56,-1,-1,58,60,-1,62,-1,64,-1,-1,-1,-1,-1,-1,-1,-1,-1,-1,-1,-1,-1,-1,-1,-1,-1,-1],"split_conditions":[8E0,7.026481E1,3.68E2,4E0,8E1,3.547E3,4.45E2,8.84E2,4.4E2,3.8290506E2,3.898513E4,3.69E2,6.5535E4,4.4E2,-1.6522117E-1,4.4E2,9.999961E-1,6.5535E4,4.45E2,1.8506965E-1,9.999968E-1,4.01E2,8.069697E-1,-1.6719101E-1,4.1447273E-1,1.6505E4,7.656698E1,-1.666126E-1,2.5718E4,1.8925314E2,4.6E1,9.62E2,5.0191354E-2,1.4711963E-1,4.4893432E-1,4.1793686E-1,-1.6660537E-1,-1.6496395E-1,8.0464375E3,4.1816413E-1,8.485878E-2,3.2E2,1.770597E-1,-1.6270153E-1,5.0841504E2,4.171778E-1,4.0937018E2,-7.877464E-2,-1.619589E-1,3.9385167E-1,3.518317E-1,-1.6533348E-1,-1.6673787E-1,-1.1015558E-1,-1.6505857E-1,3.839111E-1,-1.5036342E-1,-1.693687E-1,4.0898544E-1,-1.3864571E-1,-1.6505794E-1,4.305394E-1,1.7060976E-1,3.0423275E-1,4.075403E-1],"split_indices":[22,11,7,22,10,0,9,5,9,1,0,9,26,9,0,7,21,26,9,0,21,7,0,0,0,0,7,0,0,5,0,9,0,9,0,0,0,0,1,0,0,7,28,0,8,0,13,0,0,0,0,0,0,0,0,0,0,0,0,0,0,0,0,0,0],"split_type":[0,0,0,0,0,0,0,0,0,0,0,0,0,0,0,0,0,0,0,0,0,0,0,0,0,0,0,0,0,0,0,0,0,0,0,0,0,0,0,0,0,0,0,0,0,0,0,0,0,0,0,0,0,0,0,0,0,0,0,0,0,0,0,0,0],"sum_hessian":[2.673035E5,1.9995428E5,6.73492E4,1.9659311E5,3.3611753E3,4.5229897E3,6.2826215E4,1.7860536E5,1.798775E4,8.905634E2,2.470612E3,2.1554558E2,4.307444E3,6.261266E4,2.1355188E2,5.8992996E4,1.1961236E5,1.3787886E4,4.1998647E3,1.1837494E0,8.8937964E2,2.466834E3,3.7780542E0,4.0878082E1,1.746675E2,4.2599053E3,4.753885E1,8.420076E1,6.252846E4,5.5941414E4,3.051582E3,1.196112E5,1.1605616E0,1.3770898E4,1.6987085E1,3.7480332E3,4.5183133E2,8.576423E2,3.173738E1,2.4650315E3,1.80243E0,1.4246725E2,4.117438E3,9.01435E0,3.8524498E1,5.984625E4,2.6822097E3,4.812376E3,5.112904E4,2.9075193E3,1.440626E2,3.406908E4,8.5542125E4,1.4617097E2,1.3624728E4,2.031375E0,2.9706003E1,9.7839325E1,4.4627926E1,7.4631323E2,3.3711248E3,3.249854E1,6.0259604E0,3.5658304E2,2.3256267E3],"tree_param":{"num_deleted":"0","num_feature":"32","num_nodes":"65","size_leaf_vector":"1"}},{"base_weights":[-1.4478953E-2,1.15117E0,-5.364477E-1,-5.35723E-1,1.3472672E0,1.3275388E-1,-5.408956E-1,-5.42909E-1,-1.14892356E-1,-1.6307375E-1,1.3486084E0,4.482341E-1,-5.4440325E-1,-5.413829E-1,5.957796E-1,-5.457457E-1,-4.5899063E-1,1.6149908E-1,-1.5442601E-1,5.759275E-1,1.3502998E0,1.1262244E0,2.283103E-2,-2.4872927E-2,-5.4647744E-1,-5.066734E-1,-5.5117136E-1,1.3987617E0,-1.6015789E-1,-1.645301E-1,-4.6748713E-1,-1.6634949E-1,-3.32276E-1,1.2424027E0,-2.9362494E-1,4.2810902E-1,-5.197689E-1,1.3506323E0,-1.5882379E-1,3.6321968E-1,8.519389E-1,2.1604462E-1,-2.6781854E-1,-3.003084E-1,-1.6469473E-1,-5.412812E-1,-4.870509E-1,-5.338371E-1,-5.5308634E-1,4.2511463E-1,1.3163817E-1,2.1493744E-2,-1.6005361E-1,-3.5230856E-2,-1.4535728E-1,-1.3506685E-1,4.340368E-1,-1.3001825E-1,-8.3372556E-2,-1.681858E-1,-4.0889934E-2,4.0528557E-1,-1.6081378E-1,1.759381E-1,3.8052103E-1,1.1935265E-1,-4.325755E-2,-1.03925236E-1,8.746743E-2,-1.3321581E-1,6.475686E-2,-1.4171669E-1,-1.6412507E-1,-1.3098903E-1,-1.4667131E-1,-1.4654408E-1,-1.6499266E-1,-1.6486214E-1,-1.6654149E-1],"categories":[],"categories_nodes":[],"categories_segments":[],"categories_sizes":[],"default_left":[0,0,0,0,0,0,0,0,0,0,0,0,0,0,0,0,0,0,0,0,0,0,0,0,0,0,0,0,0,0,0,0,0,0,0,0,0,0,0,0,0,0,0,0,0,0,0,0,0,0,0,0,0,0,0,0,0,0,0,0,0,0,0,0,0,0,0,0,0,0,0,0,0,0,0,0,0,0,0],"id":13,"left_children":[1,3,5,7,9,11,13,15,17,-1,19,21,23,25,27,29,31,33,-1,35,37,39,41,-1,43,45,47,49,-1,-1,51,-1,53,55,57,-1,59,61,-1,-1,63,65,67,69,-1,71,73,75,77,-1,-1,-1,-1,-1,-1,-1,-1,-1,-1,-1,-1,-1,-1,-1,-1,-1,-1,-1,-1,-1,-1,-1,-1,-1,-1,-1,-1,-1,-1],"loss_changes":[1.6304905E5,2.7418703E4,5.510117E2,2.6043457E1,1.8901562E2,2.6149756E2,1.0218359E2,1.7697754E0,1.6240976E1,0E0,9.621875E1,2.4074794E2,3.2717133E-1,6.2164062E1,7.2656944E1,1.4694824E0,3.2504082E0,4.3266453E1,0E0,1.5352057E2,4.696875E1,6.428314E0,2.8921335E1,0E0,7.3913574E-2,2.7201172E1,4.4648438E0,1.9650269E-1,0E0,0E0,9.977413E0,0E0,4.0143757E0,9.656761E0,1.6139507E-2,0E0,1.0570354E0,4.5359375E1,0E0,0E0,8.010059E0,2.031282E1,9.144175E0,5.490437E-1,0E0,5.5878906E0,2.199707E0,1.019165E1,6.3671875E-1,0E0,0E0,0E0,0E0,0E0,0E0,0E0,0E0,0E0,0E0,0E0,0E0,0E0,0E0,0E0,0E0,0E0,0E0,0E0,0E0,0E0,0E0,0E0,0E0,0E0,0E0,0E0,0E0,0E0,0E0],"parents":[2147483647,0,0,1,1,2,2,3,3,4,4,5,5,6,6,7,7,8,8,10,10,11,11,12,12,13,13,14,14,15,15,16,16,17,17,19,19,20,20,21,21,22,22,24,24,25,25,26,26,27,27,30,30,32,32,33,33,34,34,36,36,37,37,40,40,41,41,42,42,43,43,45,45,46,46,47,47,48,48],"right_children":[2,4,6,8,10,12,14,16,18,-1,20,22,24,26,28,30,32,34,-1,36,38,40,42,-1,44,46,48,50,-1,-1,52,-1,54,56,58,-1,60,62,-1,-1,64,66,68,70,-1,72,74,76,78,-1,-1,-1,-1,-1,-1,-1,-1,-1,-1,-1,-1,-1,-1,-1,-1,-1,-1,-1,-1,-1,-1,-1,-1,-1,-1,-1,-1,-1,-1],"split_conditions":[5.66E2,1.7230037E2,7.14E2,2.29E8,3.5E2,5.3E1,1.4002298E7,8E1,3.3E8,-1.6307375E-1,1.93E2,2.96E2,6.5E1,1.398E3,2.012522E-3,9.9998987E-1,9.785714E1,2.792124E2,-1.5442601E-1,3.6055164E2,2.75E2,2E0,3.2E2,-2.4872927E-2,1E0,4.02E2,2.072E3,9.58E2,-1.6015789E-1,-1.645301E-1,4.3E1,-1.6634949E-1,2.792124E2,2.3612753E2,1.52E2,4.2810902E-1,3.75E8,2.83E2,-1.5882379E-1,3.6321968E-1,4.5E1,2E0,3.495E2,9.785714E1,-1.6469473E-1,3.75E2,1E0,1.9248964E0,1.35E3,4.2511463E-1,1.3163817E-1,2.1493744E-2,-1.6005361E-1,-3.5230856E-2,-1.4535728E-1,-1.3506685E-1,4.340368E-1,-1.3001825E-1,-8.3372556E-2,-1.681858E-1,-4.0889934E-2,4.0528557E-1,-1.6081378E-1,1.759381E-1,3.8052103E-1,1.1935265E-1,-4.325755E-2,-1.03925236E-1,8.746743E-2,-1.3321581E-1,6.475686E-2,-1.4171669E-1,-1.6412507E-1,-1.3098903E-1,-1.4667131E-1,-1.4654408E-1,-1.6499266E-1,-1.6486214E-1,-1.6654149E-1],"split_indices":[24,7,24,1,24,0,13,10,1,0,9,10,12,5,4,17,7,5,0,5,10,0,7,0,15,10,5,5,0,0,12,0,5,24,10,0,1,9,0,0,0,0,7,7,0,9,0,11,7,0,0,0,0,0,0,0,0,0,0,0,0,0,0,0,0,0,0,0,0,0,0,0,0,0,0,0,0,0,0],"split_type":[0,0,0,0,0,0,0,0,0,0,0,0,0,0,0,0,0,0,0,0,0,0,0,0,0,0,0,0,0,0,0,0,0,0,0,0,0,0,0,0,0,0,0,0,0,0,0,0,0,0,0,0,0,0,0,0,0,0,0,0,0,0,0,0,0,0,0,0,0,0,0,0,0,0,0,0,0,0,0],"sum_hessian":[2.679802E5,8.2884086E4,1.850961E5,8.631485E3,7.42526E4,1.2219271E3,1.8387417E5,8.486284E3,1.452008E2,5.2341393E1,7.4200266E4,8.338046E2,3.8812253E2,1.8379589E5,7.827656E1,8.20348E3,2.8280377E2,8.620819E1,5.8992615E1,1.6282912E2,7.403743E4,3.2083047E2,5.129741E2,1.9199169E0,3.862026E2,4.04423E4,1.433536E5,4.5614285E1,3.266227E1,7.92526E3,2.7822076E2,1.5933414E2,1.2346963E2,2.5030891E1,6.1177303E1,9.1473206E1,7.13559E1,7.4024625E4,1.2811366E1,2.4265414E2,7.8176346E1,3.0829028E2,2.0468382E2,5.1080656E0,3.8109454E2,1.4623852E4,2.581845E4,1.4289093E4,1.290645E5,4.4294357E1,1.3199295E0,3.0345577E1,2.478752E2,5.1943176E1,7.152645E1,2.567271E0,2.2463621E1,3.497496E0,5.7679806E1,6.406878E1,7.2871213E0,7.4012375E4,1.2247949E1,4.9213192E1,2.8963154E1,2.0482072E2,1.0346957E2,1.7980049E2,2.4883335E1,4.1046796E0,1.003386E0,1.1423948E3,1.3481457E4,9.238062E2,2.4894643E4,3.7581377E3,1.0530955E4,4.7407957E4,8.165654E4],"tree_param":{"num_deleted":"0","num_feature":"32","num_nodes":"79","size_leaf_vector":"1"}},{"base_weights":[1.5420494E-2,-4.9703482E-1,5.6410336E-1,-3.6413643E-1,-5.4796684E-1,9.606777E-1,-2.4308878E-1,-5.3991467E-1,-3.1064928E-1,-5.4981816E-1,-4.747989E-1,1.0685271E0,-1.8731506E-1,-4.1260082E-1,-2.2997704E-1,-5.4034483E-1,2.4178855E-1,-3.285417E-1,-2.5301963E-1,-5.4986745E-1,-3.2535812E-1,-2.8524172E-1,-5.2625674E-1,-7.6850004E-2,1.077499E0,1.11851E0,-3.339668E-1,6.003075E-1,-4.4358906E-1,1.0198939E0,-2.4398881E-1,-5.464058E-1,-4.770585E-1,-9.4598144E-2,4.852269E-1,-3.2458735E-1,-4.2471993E-1,-1.9344135E-1,-2.959136E-1,-5.2184016E-1,-1.6504326E-1,-9.706725E-2,-1.5380041E-1,-4.3840435E-1,3.8346654E-1,-2.5558043E-1,-5.310417E-1,-4.772014E-1,1.4318979E-1,1.0907695E0,6.594752E-1,1.05762266E-1,1.1723398E0,-3.3918408E-1,1.2485739E0,3.615324E-1,1.1377732E0,-1.7054324E-1,-4.4860572E-1,1.05630815E-1,3.0706847E-1,-1.556136E-1,-2.3547335E-1,-1.6402654E-1,-9.198271E-2,2.4006452E-1,-1.5134408E-1,-5.409917E-3,2.604933E-1,-1.0219375E-1,-9.686044E-2,-6.425318E-2,-1.2912336E-1,-5.63372E-2,-7.98969E-2,-8.3060354E-2,-1.03225425E-1,-1.5087698E-1,-1.646963E-1,-1.4126171E-1,8.165048E-2,-1.617651E-1,-4.68107E-2,2.680317E-1,-1.6555512E-1,1.3148154E-1,-1.2014807E-1,-1.6422215E-1,-1.3898298E-1,-1.5510918E-1,-1.0445909E-1,-2.585334E-2,8.8650025E-2,3.6694565E-1,3.1814647E-1,3.208177E-2,3.491545E-1,1.1332223E-1,-1.654904E-1,3.9996895E-1,2.6989007E-1,3.452583E-2,-1.05984695E-1,6.184665E-1,2.3699251E-1,1.802082E-1,-1.375912E-1,3.905467E-1,2.1412314E-1,-8.35977E-2,3.4511176E-1,-1.6469705E-1,-1.3318652E-1,-2.7890533E-2,-7.282857E-2],"categories":[],"categories_nodes":[],"categories_segments":[],"categories_sizes":[],"default_left":[0,0,0,0,0,0,0,0,0,0,0,0,0,0,0,0,0,0,0,0,0,0,0,0,0,0,0,0,0,0,0,0,0,0,0,0,0,0,0,0,0,0,0,0,0,0,0,0,0,0,0,0,0,0,0,0,0,0,0,0,0,0,0,0,0,0,0,0,0,0,0,0,0,0,0,0,0,0,0,0,0,0,0,0,0,0,0,0,0,0,0,0,0,0,0,0,0,0,0,0,0,0,0,0,0,0,0,0,0,0,0,0,0,0,0],"id":14,"left_children":[1,3,5,7,9,11,13,15,17,19,21,23,25,27,29,31,33,35,37,39,41,43,45,47,49,51,53,55,57,59,61,63,65,-1,67,69,71,73,75,77,-1,79,-1,81,83,85,87,89,91,93,95,97,99,101,103,105,107,109,111,-1,-1,-1,113,-1,-1,-1,-1,-1,-1,-1,-1,-1,-1,-1,-1,-1,-1,-1,-1,-1,-1,-1,-1,-1,-1,-1,-1,-1,-1,-1,-1,-1,-1,-1,-1,-1,-1,-1,-1,-1,-1,-1,-1,-1,-1,-1,-1,-1,-1,-1,-1,-1,-1,-1,-1],"loss_changes":[7.467164E4,9.2927344E2,4.105502E4,3.575581E2,1.31875E1,1.0647883E4,9.381543E1,3.114746E0,2.9999268E1,8.925781E-1,2.3816956E1,8.079453E2,1.4148741E3,9.544556E1,6.8712646E2,3.1420898E0,9.086782E-1,8.327881E0,1.761734E1,4.6484375E-1,9.6448183E-1,5.4122204E1,2.3656006E0,5.397695E1,4.319922E2,4.0545227E1,5.5258484E1,1.1195129E1,3.9546509E0,7.050476E-1,9.0616455E1,5.097656E-1,2.783461E1,0E0,8.3914685E-1,4.802246E-1,9.5721436E-1,1.1434326E0,3.5921936E0,2.1987915E-1,0E0,1.773873E0,0E0,1.2130264E1,4.7573742E1,3.7425632E0,1.8500366E0,9.3637085E-1,1.3848319E1,3.0177344E2,6.694463E2,7.136754E0,2.9875854E1,4.243988E1,6.587467E0,1.284616E1,9.7361755E-1,8.133403E0,1.1051025E0,0E0,0E0,0E0,3.9054688E1,0E0,0E0,0E0,0E0,0E0,0E0,0E0,0E0,0E0,0E0,0E0,0E0,0E0,0E0,0E0,0E0,0E0,0E0,0E0,0E0,0E0,0E0,0E0,0E0,0E0,0E0,0E0,0E0,0E0,0E0,0E0,0E0,0E0,0E0,0E0,0E0,0E0,0E0,0E0,0E0,0E0,0E0,0E0,0E0,0E0,0E0,0E0,0E0,0E0,0E0,0E0,0E0],"parents":[2147483647,0,0,1,1,2,2,3,3,4,4,5,5,6,6,7,7,8,8,9,9,10,10,11,11,12,12,13,13,14,14,15,15,16,16,17,17,18,18,19,19,20,20,21,21,22,22,23,23,24,24,25,25,26,26,27,27,28,28,29,29,30,30,31,31,32,32,34,34,35,35,36,36,37,37,38,38,39,39,41,41,43,43,44,44,45,45,46,46,47,47,48,48,49,49,50,50,51,51,52,52,53,53,54,54,55,55,56,56,57,57,58,58,62,62],"right_children":[2,4,6,8,10,12,14,16,18,20,22,24,26,28,30,32,34,36,38,40,42,44,46,48,50,52,54,56,58,60,62,64,66,-1,68,70,72,74,76,78,-1,80,-1,82,84,86,88,90,92,94,96,98,100,102,104,106,108,110,112,-1,-1,-1,114,-1,-1,-1,-1,-1,-1,-1,-1,-1,-1,-1,-1,-1,-1,-1,-1,-1,-1,-1,-1,-1,-1,-1,-1,-1,-1,-1,-1,-1,-1,-1,-1,-1,-1,-1,-1,-1,-1,-1,-1,-1,-1,-1,-1,-1,-1,-1,-1,-1,-1,-1,-1],"split_conditions":[1.036E3,5.66E2,2.896E9,2.11E2,7.36E2,9E0,2.901275E3,1.26E2,2E0,6.5535E4,1.488E9,2.3766914E3,1.408E3,2.816E3,2.928E3,4.7830864E1,5.683351E6,5.5E8,3E0,7.14E2,2E0,9.9E8,1E0,2.208E3,2.832E9,4.39403E7,1.3990272E3,2.738E3,2.896E3,1E0,1E0,6.5535E4,6.238408E1,-9.4598144E-2,9.636619E3,4.58E8,2.24E2,4.94E2,4.9E1,6.5E1,-1.6504326E-1,1.2954489E2,-1.5380041E-1,3E0,1.9859397E3,7.57E2,1.92E3,2.1894832E3,2.311668E3,1.424E9,2.854E9,1.0513199E2,2.736E3,1.448E3,1.464E3,2.736E3,1.391E3,1.44E3,1E0,1.05630815E-1,3.0706847E-1,-1.556136E-1,2.944E9,-1.6402654E-1,-9.198271E-2,2.4006452E-1,-1.5134408E-1,-5.409917E-3,2.604933E-1,-1.0219375E-1,-9.686044E-2,-6.425318E-2,-1.2912336E-1,-5.63372E-2,-7.98969E-2,-8.3060354E-2,-1.03225425E-1,-1.5087698E-1,-1.646963E-1,-1.4126171E-1,8.165048E-2,-1.617651E-1,-4.68107E-2,2.680317E-1,-1.6555512E-1,1.3148154E-1,-1.2014807E-1,-1.6422215E-1,-1.3898298E-1,-1.5510918E-1,-1.0445909E-1,-2.585334E-2,8.8650025E-2,3.6694565E-1,3.1814647E-1,3.208177E-2,3.491545E-1,1.1332223E-1,-1.654904E-1,3.9996895E-1,2.6989007E-1,3.452583E-2,-1.05984695E-1,6.184665E-1,2.3699251E-1,1.802082E-1,-1.375912E-1,3.905467E-1,2.1412314E-1,-8.35977E-2,3.4511176E-1,-1.6469705E-1,-1.3318652E-1,-2.7890533E-2,-7.282857E-2],"split_indices":[10,24,1,10,10,0,5,3,0,26,1,5,10,5,5,10,0,1,0,24,15,1,0,5,1,1,13,24,5,0,0,26,9,0,2,1,10,5,0,12,0,7,0,0,24,9,5,24,5,1,1,15,5,7,7,5,9,7,0,0,0,0,1,0,0,0,0,0,0,0,0,0,0,0,0,0,0,0,0,0,0,0,0,0,0,0,0,0,0,0,0,0,0,0,0,0,0,0,0,0,0,0,0,0,0,0,0,0,0,0,0,0,0,0,0],"split_type":[0,0,0,0,0,0,0,0,0,0,0,0,0,0,0,0,0,0,0,0,0,0,0,0,0,0,0,0,0,0,0,0,0,0,0,0,0,0,0,0,0,0,0,0,0,0,0,0,0,0,0,0,0,0,0,0,0,0,0,0,0,0,0,0,0,0,0,0,0,0,0,0,0,0,0,0,0,0,0,0,0,0,0,0,0,0,0,0,0,0,0,0,0,0,0,0,0,0,0,0,0,0,0,0,0,0,0,0,0,0,0,0,0,0,0],"sum_hessian":[2.6556753E5,1.373171E5,1.28250445E5,3.8047312E4,9.926979E4,8.599891E4,4.2251535E4,8.874237E3,2.9173076E4,9.681368E4,2.4561033E3,7.861354E4,7.385368E3,3.031323E3,3.9220215E4,8.869665E3,4.571852E0,2.2257908E4,6.9151685E3,9.679096E4,2.2718857E1,5.2578674E2,1.9303165E3,6.109496E2,7.800259E4,7.450068E2,6.6403613E3,8.943994E1,2.941883E3,4.3401096E2,3.8786203E4,8.087487E3,7.821784E2,1.3004434E0,3.2714086E0,2.1383121E4,8.747872E2,2.8969333E3,4.018235E3,9.6479846E2,9.5826164E4,1.0923571E1,1.1795287E1,4.2808212E2,9.770462E1,3.4475864E1,1.8958407E3,2.1627652E2,3.9467303E2,7.560098E4,2.4016138E3,3.7749798E1,7.07257E2,6.6193247E3,2.1036837E1,6.3085953E1,2.6353985E1,5.3707253E1,2.8881758E3,2.900474E0,4.3111047E2,1.164291E3,3.762191E4,8.074443E3,1.3044186E1,1.5847324E1,7.6633105E2,1.8257872E0,1.4456214E0,2.048844E3,1.9334277E4,2.404112E1,8.5074603E2,2.6918079E3,2.0512558E2,2.8845122E3,1.133723E3,5.8009924E2,3.846992E2,5.291411E0,5.6321597E0,3.1478607E2,1.13296036E2,6.3258385E1,3.4446236E1,5.6066303E0,2.8869236E1,1.5213507E3,3.7449002E2,1.629569E2,5.3319626E1,1.5766934E2,2.3700371E2,1.4066438E4,6.153454E4,1.146665E3,1.2549487E3,2.7003359E1,1.074644E1,4.4237668E2,2.648803E2,1.9903082E2,6.420294E3,6.3263946E0,1.4710443E1,4.9050434E1,1.4035518E1,1.7509687E1,8.844298E0,5.0373287E1,3.3339667E0,1.2269899E2,2.7654768E3,1.8312501E3,3.579066E4],"tree_param":{"num_deleted":"0","num_feature":"32","num_nodes":"115","size_leaf_vector":"1"}},{"base_weights":[-1.4373604E-2,5.4249644E-1,-4.8889598E-1,-5.49573E-1,1.3634996E0,-3.7120673E-1,-5.3234506E-1,-5.501794E-1,-2.9978693E-1,3.540196E-1,1.3800236E0,-4.1787887E-1,-3.2669604E-2,2.3882096E0,-5.3547275E-1,-5.5048573E-1,-5.020633E-1,-5.363841E-1,1.9893363E0,-4.8315227E-1,8.2739E-1,1.3887472E0,-1.3823614E-1,-3.3839762E-1,-4.9757412E-1,1.6268616E0,-5.437586E-1,2.4828782E0,-1.3241711E-1,-2.628372E-1,-5.3651035E-1,-1.6515663E-1,-3.1239042E-1,-1.650899E-1,1.9627507E0,-1.6593996E-1,2.5416082E-2,6.282394E-1,1.6364415E-1,-4.9080107E-1,-3.5642445E-1,1.0188024E0,4.119554E-1,2.8238137E0,1.3817782E0,-9.9557504E-2,-1.6096866E-1,-4.8542932E-1,4.8415938E-1,2.7144878E0,-5.0233936E-1,2.026155E0,4.2450538E-1,-5.4750603E-1,3.765322E-1,1.0932268E0,6.957965E-1,-5.407771E-1,7.1609735E-1,-5.495528E-1,-5.1410663E-1,1.8267307E-1,-1.4921156E-1,7.1058935E-1,3.0154787E-2,1.9838142E-1,-1.16239935E-1,-1.5509126E-1,-1.3495868E-1,-7.69363E-2,-1.5086834E-1,3.8881046E-1,2.4733457E-1,3.014462E-1,5.610324E-2,1.1619357E0,6.903858E-1,4.1471204E-1,-1.4955361E-1,-4.0376563E-2,1.7734123E-2,-1.5300429E-1,-9.781262E-2,2.2297825E-1,5.2695207E-2,1.1017419E0,-1.416043E-1,-1.627634E-1,-9.96975E-2,1.0423207E0,4.3046734E-1,-1.23286685E-2,-1.64846E-1,6.030974E-3,-1.6317724E-1,8.312843E-1,-1.3688971E-1,-1.5610917E-1,-1.654807E-1,-1.5178822E-1,-1.6545318E-1],"categories":[],"categories_nodes":[],"categories_segments":[],"categories_sizes":[],"default_left":[0,0,0,0,0,0,0,0,0,0,0,0,0,0,0,0,0,0,0,0,0,0,0,0,0,0,0,0,0,0,0,0,0,0,0,0,0,0,0,0,0,0,0,0,0,0,0,0,0,0,0,0,0,0,0,0,0,0,0,0,0,0,0,0,0,0,0,0,0,0,0,0,0,0,0,0,0,0,0,0,0,0,0,0,0,0,0,0,0,0,0,0,0,0,0,0,0,0,0,0,0],"id":15,"left_children":[1,3,5,7,9,11,13,15,17,19,21,23,25,27,29,31,33,35,37,39,41,43,45,47,49,51,53,55,-1,57,59,-1,61,-1,63,-1,65,-1,-1,67,69,71,73,75,77,79,-1,81,83,85,87,89,-1,91,-1,-1,-1,93,95,97,99,-1,-1,-1,-1,-1,-1,-1,-1,-1,-1,-1,-1,-1,-1,-1,-1,-1,-1,-1,-1,-1,-1,-1,-1,-1,-1,-1,-1,-1,-1,-1,-1,-1,-1,-1,-1,-1,-1,-1,-1],"loss_changes":[7.062336E4,1.10247484E5,7.376797E2,7.8291016E0,1.1703438E3,6.1481055E2,9.6395703E2,4.9902344E-1,7.1475624E1,4.489276E2,9.1490625E2,2.1644775E2,4.0006006E3,3.1345703E1,2.9638672E1,2.8125E-1,4.202314E1,1.1301422E0,7.3244476E-1,2.2194672E-1,5.710199E1,6.828125E2,6.039231E0,2.0713525E3,2.6269824E2,9.107617E1,2.4996582E1,1.2329651E1,0E0,1.09521706E2,3.0365234E1,0E0,2.0579662E0,0E0,4.923485E0,0E0,1.4087106E0,0E0,0E0,1.7828369E-1,2.657683E-1,2.5576965E1,3.0464527E1,1.7251074E2,7.71875E1,2.018331E0,0E0,5.676416E1,2.0749078E2,7.941751E1,1.1635986E2,3.226864E2,0E0,3.5877686E0,0E0,0E0,0E0,5.633621E-1,2.1598442E2,3.6777344E0,1.1482422E1,0E0,0E0,0E0,0E0,0E0,0E0,0E0,0E0,0E0,0E0,0E0,0E0,0E0,0E0,0E0,0E0,0E0,0E0,0E0,0E0,0E0,0E0,0E0,0E0,0E0,0E0,0E0,0E0,0E0,0E0,0E0,0E0,0E0,0E0,0E0,0E0,0E0,0E0,0E0,0E0],"parents":[2147483647,0,0,1,1,2,2,3,3,4,4,5,5,6,6,7,7,8,8,9,9,10,10,11,11,12,12,13,13,14,14,15,15,16,16,17,17,18,18,19,19,20,20,21,21,22,22,23,23,24,24,25,25,26,26,27,27,29,29,30,30,32,32,34,34,36,36,39,39,40,40,41,41,42,42,43,43,44,44,45,45,47,47,48,48,49,49,50,50,51,51,53,53,57,57,58,58,59,59,60,60],"right_children":[2,4,6,8,10,12,14,16,18,20,22,24,26,28,30,32,34,36,38,40,42,44,46,48,50,52,54,56,-1,58,60,-1,62,-1,64,-1,66,-1,-1,68,70,72,74,76,78,80,-1,82,84,86,88,90,-1,92,-1,-1,-1,94,96,98,100,-1,-1,-1,-1,-1,-1,-1,-1,-1,-1,-1,-1,-1,-1,-1,-1,-1,-1,-1,-1,-1,-1,-1,-1,-1,-1,-1,-1,-1,-1,-1,-1,-1,-1,-1,-1,-1,-1,-1,-1],"split_conditions":[4.03E2,2.83E2,2.72E3,1.6E1,7.5E2,1.9248964E0,4.33E2,2.83E2,2.47E2,3.21E2,4.02E2,1.02E3,3.5132404E1,2.012522E-3,1.7167212E2,6.5535E4,2.47E2,3.544882E1,3.0114684E5,4.8E1,2E0,2.96E2,5.3E1,9.58E2,4.4E2,2.894434E1,3.75E2,6.683E3,-1.3241711E-1,9.68E3,2E0,-1.6515663E-1,5.9972218E1,-1.650899E-1,2.11803E5,-1.6593996E-1,3.6530014E1,6.282394E-1,1.6364415E-1,5.92E8,7.7E1,3.45E2,1.6297872E7,1.2901E4,1.0513199E2,2E0,-1.6096866E-1,4.62E2,9.813333E8,2.754E3,1.196E3,4.42E2,4.2450538E-1,4.09E2,3.765322E-1,1.0932268E0,6.957965E-1,1.22669816E-1,2.18475E5,2.896E3,1.0560009E1,1.8267307E-1,-1.4921156E-1,7.1058935E-1,3.0154787E-2,1.9838142E-1,-1.16239935E-1,-1.5509126E-1,-1.3495868E-1,-7.69363E-2,-1.5086834E-1,3.8881046E-1,2.4733457E-1,3.014462E-1,5.610324E-2,1.1619357E0,6.903858E-1,4.1471204E-1,-1.4955361E-1,-4.0376563E-2,1.7734123E-2,-1.5300429E-1,-9.781262E-2,2.2297825E-1,5.2695207E-2,1.1017419E0,-1.416043E-1,-1.627634E-1,-9.96975E-2,1.0423207E0,4.3046734E-1,-1.23286685E-2,-1.64846E-1,6.030974E-3,-1.6317724E-1,8.312843E-1,-1.3688971E-1,-1.5610917E-1,-1.654807E-1,-1.5178822E-1,-1.6545318E-1],"split_indices":[9,7,5,22,5,11,9,9,7,10,7,5,11,4,2,26,7,23,0,0,0,10,0,5,7,11,10,0,0,5,15,0,13,0,0,0,2,0,0,1,0,10,1,0,15,0,0,10,1,0,10,7,0,9,0,0,0,2,0,5,15,0,0,0,0,0,0,0,0,0,0,0,0,0,0,0,0,0,0,0,0,0,0,0,0,0,0,0,0,0,0,0,0,0,0,0,0,0,0,0,0],"split_type":[0,0,0,0,0,0,0,0,0,0,0,0,0,0,0,0,0,0,0,0,0,0,0,0,0,0,0,0,0,0,0,0,0,0,0,0,0,0,0,0,0,0,0,0,0,0,0,0,0,0,0,0,0,0,0,0,0,0,0,0,0,0,0,0,0,0,0,0,0,0,0,0,0,0,0,0,0,0,0,0,0,0,0,0,0,0,0,0,0,0,0,0,0,0,0,0,0,0,0,0,0],"sum_hessian":[2.6726034E5,1.2296091E5,1.4429944E5,5.2769332E4,7.019157E4,3.891126E4,1.0538818E5,5.2640332E4,1.2900105E2,1.1308104E3,6.9060766E4,3.4196547E4,4.714712E3,1.11925255E2,1.0527626E5,5.2296965E4,3.4336697E2,1.1761082E2,1.1390232E1,4.0844342E2,7.2236694E2,6.8666305E4,3.9445428E2,1.7123887E4,1.7072662E4,1.1096007E3,3.6051116E3,1.08420425E2,3.5048304E0,4.0010437E2,1.0487615E5,5.2287664E4,9.298532E0,3.3753812E2,5.8288765E0,1.1422094E2,3.3898776E0,1.0199574E1,1.1906582E0,3.824853E2,2.595814E1,4.9352283E2,2.2884413E2,3.298896E2,6.833642E4,3.6068103E2,3.377325E1,1.452751E4,2.5963762E3,2.444831E1,1.7048215E4,3.8166162E2,7.27939E2,3.598311E3,6.800501E0,1.0758369E1,9.7662056E1,3.119756E2,8.812878E1,6.627196E4,3.8604188E4,1.1716057E0,8.126925E0,4.562528E0,1.2663484E0,1.0977312E0,2.2921464E0,2.2623732E2,1.5624797E2,1.706302E1,8.89512E0,2.0105844E2,2.9246442E2,6.199165E1,1.6685248E2,1.0753424E2,2.2235535E2,6.8315055E4,2.1360561E1,2.9557623E2,6.51048E1,1.2584232E4,1.9432771E3,1.4104222E3,1.185954E3,1.8679905E1,5.7684054E0,1.3785908E4,3.262306E3,1.0923185E2,2.7242978E2,1.4103356E1,3.5842075E3,1.7106032E0,3.1026498E2,3.1520155E1,5.660862E1,4.3647285E3,6.1907234E4,3.1712344E4,6.8918457E3],"tree_param":{"num_deleted":"0","num_feature":"32","num_nodes":"101","size_leaf_vector":"1"}},{"base_weights":[-1.9405158E-2,9.8806113E-1,-5.381618E-1,6.8606114E-1,9.9563336E-1,-5.412365E-1,3.0327228E-1,9.6132064E-1,-3.4716722E-1,9.960442E-1,2.114955E-1,-5.415628E-1,2.9933035E-1,6.600063E-1,9.9919856E-1,-4.6280897E-1,3.3602446E-1,9.073109E-1,9.970644E-1,-3.232314E-1,3.1905195E-1,-2.523592E-1,-5.416126E-1,8.668278E-1,-1.6473106E-1,3.008762E-1,8.335217E-1,-5.0904685E-1,1.16454184E-1,9.42392E-1,-2.1249212E-1,9.789631E-1,2.9957253E-1,-4.8688337E-1,3.1688198E-1,-1.572164E-1,3.3126932E-1,-4.8969844E-1,-5.4177934E-1,2.8868374E-1,2.2010367E-1,-9.972537E-2,3.0603895E-1,-1.6762891E-1,-1.432894E-1,2.9760054E-1,-8.795565E-2,3.055281E-1,2.2401601E-1,2.939627E-1,-1.395586E-1,-1.5685734E-1,-1.5581441E-2,-1.586929E-1,2.069498E-1,-1.6179447E-1,-1.6342092E-1],"categories":[],"categories_nodes":[],"categories_segments":[],"categories_sizes":[],"default_left":[0,0,0,0,0,0,0,0,0,0,0,0,0,0,0,0,0,0,0,0,0,0,0,0,0,0,0,0,0,0,0,0,0,0,0,0,0,0,0,0,0,0,0,0,0,0,0,0,0,0,0,0,0,0,0,0,0],"id":16,"left_children":[1,3,5,7,9,11,-1,13,15,17,19,21,-1,23,25,27,-1,29,31,33,-1,35,37,39,-1,-1,41,43,45,47,-1,49,-1,51,-1,-1,-1,53,55,-1,-1,-1,-1,-1,-1,-1,-1,-1,-1,-1,-1,-1,-1,-1,-1,-1,-1],"loss_changes":[1.2526985E5,1.8563281E2,7.5415234E2,5.680059E2,2.5382812E1,7.983203E1,0E0,1.733191E1,7.1887314E1,6.2890625E0,1.9883163E1,2.1367188E0,0E0,4.5233658E1,2.6367188E-2,1.05210495E1,0E0,5.24729E1,1.1796875E0,6.636219E0,0E0,1.129512E1,1.0976562E0,1.2413788E0,0E0,0E0,8.312359E0,2.9836273E-1,1.0938499E1,1.2555969E1,0E0,8.492676E0,0E0,3.628559E-1,0E0,0E0,0E0,2.4250519E1,8.515625E-1,0E0,0E0,0E0,0E0,0E0,0E0,0E0,0E0,0E0,0E0,0E0,0E0,0E0,0E0,0E0,0E0,0E0,0E0],"parents":[2147483647,0,0,1,1,2,2,3,3,4,4,5,5,7,7,8,8,9,9,10,10,11,11,13,13,14,14,15,15,17,17,18,18,19,19,21,21,22,22,23,23,26,26,27,27,28,28,29,29,31,31,33,33,37,37,38,38],"right_children":[2,4,6,8,10,12,-1,14,16,18,20,22,-1,24,26,28,-1,30,32,34,-1,36,38,40,-1,-1,42,44,46,48,-1,50,-1,52,-1,-1,-1,54,56,-1,-1,-1,-1,-1,-1,-1,-1,-1,-1,-1,-1,-1,-1,-1,-1,-1,-1],"split_conditions":[8E1,5.7735026E-1,2.012522E-3,1.0065877E0,6.5535E4,3.2907504E2,3.0327228E-1,2.45E2,3.1246195E-8,6.5E1,1.12E3,3.8290506E2,2.9933035E-1,2.7335026E0,2.6992744E5,4.28E1,3.3602446E-1,9.476047E-9,1.3812369E3,1.1346514E8,3.1905195E-1,1.3104624E0,2.11E2,3.2E1,-1.6473106E-1,3.008762E-1,2.52E2,3.157261E1,5E1,2E0,-2.1249212E-1,1.46E2,2.9957253E-1,1.7054709E4,3.1688198E-1,-1.572164E-1,3.3126932E-1,1.4142135E0,9.62E2,2.8868374E-1,2.2010367E-1,-9.972537E-2,3.0603895E-1,-1.6762891E-1,-1.432894E-1,2.9760054E-1,-8.795565E-2,3.055281E-1,2.2401601E-1,2.939627E-1,-1.395586E-1,-1.5685734E-1,-1.5581441E-2,-1.586929E-1,2.069498E-1,-1.6179447E-1,-1.6342092E-1],"split_indices":[10,13,4,10,26,15,0,26,18,12,9,1,0,27,0,7,0,17,1,0,0,2,9,26,0,0,26,7,7,15,0,3,0,1,0,0,0,13,9,0,0,0,0,0,0,0,0,0,0,0,0,0,0,0,0,0,0],"split_type":[0,0,0,0,0,0,0,0,0,0,0,0,0,0,0,0,0,0,0,0,0,0,0,0,0,0,0,0,0,0,0,0,0,0,0,0,0,0,0,0,0,0,0,0,0,0,0,0,0,0,0,0,0,0,0,0,0],"sum_hessian":[2.3968933E5,8.146907E4,1.5822027E5,1.9949926E3,7.947408E4,1.5790748E5,3.1277585E2,1.5753716E3,4.1962085E2,7.9432195E4,4.1887836E1,1.5787466E5,3.282162E1,1.7798065E2,1.397391E3,3.8959906E2,3.0021816E1,9.1303735E2,7.851916E4,2.6117176E1,1.577066E1,2.8074997E1,1.578466E5,1.522252E2,2.5755447E1,1.3617448E3,3.5646187E1,3.6091162E2,2.8687412E1,8.9404114E2,1.899626E1,6.098082E3,7.242107E4,2.3925884E1,2.1912916E0,2.3901705E1,4.173293E0,5.145597E2,1.5733203E5,8.503702E1,6.718818E1,4.8102217E0,3.0835964E1,1.3325099E2,2.2766064E2,8.690672E0,1.999674E1,6.4082263E2,2.5321848E2,6.0945527E3,3.5292892E0,2.1911459E1,2.0144248E0,4.98511E2,1.604867E1,8.5913695E4,7.1418336E4],"tree_param":{"num_deleted":"0","num_feature":"32","num_nodes":"57","size_leaf_vector":"1"}},{"base_weights":[3.6550906E-2,-4.1253015E-1,4.632399E-1,-4.5839128E-1,-1.1129367E-1,2.2136025E-1,6.0750884E-1,-1.9560423E-1,-4.8061937E-1,-6.936057E-2,-3.4234956E-1,2.4558678E-2,6.958081E-1,7.732707E-1,5.83025E-1,4.8376712E-1,-5.328722E-1,-4.326446E-1,-5.280531E-1,-1.1157603E-1,5.3370804E-1,-4.46143E-1,-1.5983136E-1,4.7320482E-1,-1.8534081E-2,7.540486E-1,4.912254E-1,4.315077E-1,8.7063956E-1,-2.0987445E-2,5.8524895E-1,-5.21751E-1,7.338978E-1,-5.340185E-1,5.584937E-1,-4.709066E-1,-2.5263327E-1,-5.344316E-1,-4.432944E-1,1.0834912E-1,-1.6404536E-1,-4.699832E-2,6.323256E-1,-3.7239367E-1,-4.9351174E-1,5.9082508E-2,-3.045037E-1,-2.1030713E-2,8.290377E-1,-1.7623228E-1,8.126946E-4,4.3018797E-1,7.9376376E-1,8.4723365E-1,2.895793E-1,5.0713265E-1,-1.5230341E-1,7.0886153E-1,8.725442E-1,7.133751E-1,5.800797E-1,-1.5703304E-1,1.6921228E-2,2.4174324E-1,-2.508634E-2,-1.6030426E-1,-1.00965984E-1,3.5297135E-1,-1.14862576E-1,-1.5891585E-1,-1.2887342E-1,-1.4401379E-1,-3.5914455E-2,-1.60588E-1,-1.0477851E-1,-1.5138064E-1,1.5279597E-1,1.2698215E-1,1.9377401E-2,-8.949296E-2,-1.0298688E-2,-3.1677924E-2,4.4359677E-2,6.1473894E-1,1.7592382E-1,2.0751765E-1,-1.1384157E-1,-3.353372E-2,-1.4930296E-1,2.59816E-3,2.6596764E-1,-1.0457782E-1,-4.075515E-2,6.0412373E-2,-5.650361E-2,3.44391E-1,2.450564E-1,7.415435E-2,-9.537715E-2,-1.7478652E-2,1.1142049E-3,4.3908693E-2,2.1316513E-1,2.9026335E-1,2.29874E-1,4.4814683E-2,2.6282302E-1,-3.316731E-2,1.2219539E-1,2.530614E-1,1.1181205E-1,2.798582E-1,1.6250241E-1,2.86551E-1,2.6060092E-1,1.2638322E-1,2.1413521E-1,1.5925846E-1,1.7473707E-1],"categories":[],"categories_nodes":[],"categories_segments":[],"categories_sizes":[],"default_left":[0,0,0,0,0,0,0,0,0,0,0,0,0,0,0,0,0,0,0,0,0,0,0,0,0,0,0,0,0,0,0,0,0,0,0,0,0,0,0,0,0,0,0,0,0,0,0,0,0,0,0,0,0,0,0,0,0,0,0,0,0,0,0,0,0,0,0,0,0,0,0,0,0,0,0,0,0,0,0,0,0,0,0,0,0,0,0,0,0,0,0,0,0,0,0,0,0,0,0,0,0,0,0,0,0,0,0,0,0,0,0,0,0,0,0,0,0,0,0],"id":17,"left_children":[1,3,5,7,9,11,13,15,17,19,21,23,25,27,29,31,33,35,37,39,41,43,45,47,49,51,53,55,57,-1,59,61,63,65,67,69,71,73,75,77,79,81,83,85,87,89,91,93,95,97,99,101,103,105,107,109,-1,111,113,115,117,-1,-1,-1,-1,-1,-1,-1,-1,-1,-1,-1,-1,-1,-1,-1,-1,-1,-1,-1,-1,-1,-1,-1,-1,-1,-1,-1,-1,-1,-1,-1,-1,-1,-1,-1,-1,-1,-1,-1,-1,-1,-1,-1,-1,-1,-1,-1,-1,-1,-1,-1,-1,-1,-1,-1,-1,-1,-1],"loss_changes":[4.8109426E4,1.689873E3,4.492498E3,6.200254E2,1.565857E2,4.4913457E3,3.268379E2,1.8977299E3,2.2251562E2,3.4839185E2,4.6960052E1,6.573444E2,1.6766406E2,3.4488965E2,1.0208789E2,6.914829E2,7.222168E0,3.3509277E2,2.6371094E1,1.4758162E2,5.130063E1,5.343048E0,2.8571022E1,5.2402106E2,9.464503E1,1.4083154E2,2.243053E2,1.637974E2,1.8696289E0,0E0,4.5970703E1,5.657196E-1,1.2945508E2,1.7932129E-1,4.113662E0,9.733008E1,2.578886E2,7.1132812E0,2.017605E2,3.3925407E1,1.7981427E2,1.5102202E0,4.858618E1,4.95356E0,1.4710083E0,1.4994682E1,3.990158E0,4.64857E1,5.793579E0,2.0345276E2,4.736298E0,9.547423E1,4.6004883E1,2.2625E1,9.41944E1,9.607318E1,0E0,3.2127228E0,1.7226562E0,2.3071289E-2,7.5683594E0,0E0,0E0,0E0,0E0,0E0,0E0,0E0,0E0,0E0,0E0,0E0,0E0,0E0,0E0,0E0,0E0,0E0,0E0,0E0,0E0,0E0,0E0,0E0,0E0,0E0,0E0,0E0,0E0,0E0,0E0,0E0,0E0,0E0,0E0,0E0,0E0,0E0,0E0,0E0,0E0,0E0,0E0,0E0,0E0,0E0,0E0,0E0,0E0,0E0,0E0,0E0,0E0,0E0,0E0,0E0,0E0,0E0,0E0],"parents":[2147483647,0,0,1,1,2,2,3,3,4,4,5,5,6,6,7,7,8,8,9,9,10,10,11,11,12,12,13,13,14,14,15,15,16,16,17,17,18,18,19,19,20,20,21,21,22,22,23,23,24,24,25,25,26,26,27,27,28,28,30,30,31,31,32,32,33,33,34,34,35,35,36,36,37,37,38,38,39,39,40,40,41,41,42,42,43,43,44,44,45,45,46,46,47,47,48,48,49,49,50,50,51,51,52,52,53,53,54,54,55,55,57,57,58,58,59,59,60,60],"right_children":[2,4,6,8,10,12,14,16,18,20,22,24,26,28,30,32,34,36,38,40,42,44,46,48,50,52,54,56,58,-1,60,62,64,66,68,70,72,74,76,78,80,82,84,86,88,90,92,94,96,98,100,102,104,106,108,110,-1,112,114,116,118,-1,-1,-1,-1,-1,-1,-1,-1,-1,-1,-1,-1,-1,-1,-1,-1,-1,-1,-1,-1,-1,-1,-1,-1,-1,-1,-1,-1,-1,-1,-1,-1,-1,-1,-1,-1,-1,-1,-1,-1,-1,-1,-1,-1,-1,-1,-1,-1,-1,-1,-1,-1,-1,-1,-1,-1,-1,-1],"split_conditions":[1.408E3,5.68E2,2.832E9,4.22E2,1.37E3,6E0,2.901275E3,5.7735026E-1,4.8E1,2.736E9,1.391E3,2.901275E3,5E1,2.896E9,2.928E9,1.0342113E1,1.26E2,2E0,6.424E4,1.14E9,1.616E3,2.754E3,1.396E3,2.896E3,1.464E9,4.2E1,3.3333334E7,1.441E3,2.896E3,-2.0987445E-2,1E0,9.85356E5,3.75E8,6.5535E4,5.683351E6,5.01E8,2.47E2,4.92E2,1E0,5.7E2,1.472E9,1.352E3,1.035E3,1E0,5.6615384E7,4.3E1,1.404E3,1.417E3,7.5E8,7.5E8,1.472E9,1.3333333E5,2.901275E3,1.0977778E7,4.802405E7,1.417E3,-1.5230341E-1,2.836E3,1E0,2.928E3,2.944E9,-1.5703304E-1,1.6921228E-2,2.4174324E-1,-2.508634E-2,-1.6030426E-1,-1.00965984E-1,3.5297135E-1,-1.14862576E-1,-1.5891585E-1,-1.2887342E-1,-1.4401379E-1,-3.5914455E-2,-1.60588E-1,-1.0477851E-1,-1.5138064E-1,1.5279597E-1,1.2698215E-1,1.9377401E-2,-8.949296E-2,-1.0298688E-2,-3.1677924E-2,4.4359677E-2,6.1473894E-1,1.7592382E-1,2.0751765E-1,-1.1384157E-1,-3.353372E-2,-1.4930296E-1,2.59816E-3,2.6596764E-1,-1.0457782E-1,-4.075515E-2,6.0412373E-2,-5.650361E-2,3.44391E-1,2.450564E-1,7.415435E-2,-9.537715E-2,-1.7478652E-2,1.1142049E-3,4.3908693E-2,2.1316513E-1,2.9026335E-1,2.29874E-1,4.4814683E-2,2.6282302E-1,-3.316731E-2,1.2219539E-1,2.530614E-1,1.1181205E-1,2.798582E-1,1.6250241E-1,2.86551E-1,2.6060092E-1,1.2638322E-1,2.1413521E-1,1.5925846E-1,1.7473707E-1],"split_indices":[10,10,1,5,9,15,5,13,0,1,9,5,0,1,1,10,3,15,5,1,24,5,10,5,1,0,1,9,5,0,0,0,1,26,0,1,10,10,15,7,1,5,7,0,1,15,7,7,1,1,1,2,5,1,1,7,0,5,0,5,1,0,0,0,0,0,0,0,0,0,0,0,0,0,0,0,0,0,0,0,0,0,0,0,0,0,0,0,0,0,0,0,0,0,0,0,0,0,0,0,0,0,0,0,0,0,0,0,0,0,0,0,0,0,0,0,0,0,0],"split_type":[0,0,0,0,0,0,0,0,0,0,0,0,0,0,0,0,0,0,0,0,0,0,0,0,0,0,0,0,0,0,0,0,0,0,0,0,0,0,0,0,0,0,0,0,0,0,0,0,0,0,0,0,0,0,0,0,0,0,0,0,0,0,0,0,0,0,0,0,0,0,0,0,0,0,0,0,0,0,0,0,0,0,0,0,0,0,0,0,0,0,0,0,0,0,0,0,0,0,0,0,0,0,0,0,0,0,0,0,0,0,0,0,0,0,0,0,0,0,0],"sum_hessian":[2.510675E5,1.2232406E5,1.2874344E5,1.0616125E5,1.6162815E4,4.8100777E4,8.064266E4,8.280196E3,9.7881055E4,1.3681189E4,2.481626E3,3.3999E4,1.4101776E4,1.0374471E4,7.026819E4,2.7467937E3,5.533403E3,4.866802E4,4.921303E4,1.2786907E4,8.9428235E2,1.5810684E3,9.005575E2,2.978574E3,3.1020428E4,1.0974794E4,3.1269824E3,2.3015393E3,8.0729316E3,2.3841002E2,7.002978E4,5.4695685E2,2.199837E3,5.528107E3,5.2958694E0,4.0135484E4,8.532536E3,4.5763785E4,3.449246E3,2.4628423E3,1.0324064E4,1.2989914E2,7.643832E2,6.2181445E2,9.592539E2,3.5857065E2,5.419868E2,1.2472047E3,1.7313691E3,3.3889036E3,2.7631523E4,1.2001228E3,9.774671E3,1.1295494E3,1.9974329E3,2.1304514E3,1.7108781E2,9.8280716E1,7.974651E3,2.7104717E3,6.7319305E4,5.454547E2,1.5021144E0,2.0219873E3,1.7784958E2,5.517208E3,1.0898893E1,3.0460582E0,2.2498112E0,1.6559111E4,2.3576375E4,3.1465063E3,5.38603E3,4.5549918E4,2.1386809E2,3.241126E3,2.0812E2,2.993986E2,2.1634438E3,5.0724575E3,5.2516074E3,1.00221176E2,